{"learner":{"attributes":{"scikit_learn":"{\"_estimator_type\": \"regressor\"}"},"feature_names":["temperature_2m_mean","precipitation_sum","wind_speed_10m_max","wind_direction_10m_dominant"],"feature_types":["float","float","float","float"],"gradient_booster":{"model":{"gbtree_model_param":{"num_parallel_tree":"1","num_trees":"100"},"iteration_indptr":[0,1,2,3,4,5,6,7,8,9,10,11,12,13,14,15,16,17,18,19,20,21,22,23,24,25,26,27,28,29,30,31,32,33,34,35,36,37,38,39,40,41,42,43,44,45,46,47,48,49,50,51,52,53,54,55,56,57,58,59,60,61,62,63,64,65,66,67,68,69,70,71,72,73,74,75,76,77,78,79,80,81,82,83,84,85,86,87,88,89,90,91,92,93,94,95,96,97,98,99,100],"tree_info":[0,0,0,0,0,0,0,0,0,0,0,0,0,0,0,0,0,0,0,0,0,0,0,0,0,0,0,0,0,0,0,0,0,0,0,0,0,0,0,0,0,0,0,0,0,0,0,0,0,0,0,0,0,0,0,0,0,0,0,0,0,0,0,0,0,0,0,0,0,0,0,0,0,0,0,0,0,0,0,0,0,0,0,0,0,0,0,0,0,0,0,0,0,0,0,0,0,0,0,0],"trees":[{"base_weights":[-6.479845E-7,-1.3046468E0,1.4441083E1,1.4332839E0,-4.32848E0,1.1153588E1,2.0663849E1,-4.673592E0,1.7703643E0,-2.1476247E0,-4.9277987E0,1.4500805E1,7.098026E0,1.7668768E1,2.6259302E1,6.150653E0,-5.5261374E0,2.563392E0,-3.6411232E-1,-2.6712725E0,9.744485E0,-5.4386487E0,-1.3535546E0,-2.8493469E0,1.5547906E1,5.1893444E0,1.0186121E1,1.5255729E1,7.3195415E0,8.788466E0,1.328193E1,-1.6592526E0,1.0453737E1,-6.371424E0,-2.4144206E0,3.1601343E0,-2.1987894E-1,-7.32661E-1,1.0544485E1,8.615264E0,-2.9696577E0,2.078193E1,-5.449347E0,-4.1079564E0,-6.149975E0,-3.9137177E0,3.1450262E0,2.6255443E0,-2.2123368E0,3.3756998E0,1.6653582E1,3.0460117E0,1.2014151E1,1.6640373E1,8.94517E0,-9.252548E-3,1.5950653E1,3.5876634E0,8.907475E-1,-5.566546E-1,-2.2346578E0,-1.0324663E0,1.6407475E0,7.760258E-1,2.3488717E0,-1.0354035E0,6.914767E-1,-4.5047998E-1,1.400914E0,-5.1233673E-1,4.1463084E0,7.3876634E0,-1.6638789E0,-1.067641E0,5.82266E-1,8.761122E0,7.8766334E-1,-4.5925257E-1,-1.8138789E0,-6.879571E-1,-1.7310536E0,-2.3835187E0,-1.6742235E0,-1.2764379E0,2.8407476E0,-1.4468284E0,2.6692562E0,-6.092526E-1,1.7907475E0,2.9111214E0,-1.1388788E0,3.7093284E0,6.204673E0,2.7835512E0,4.5889246E-1,4.4330373E0,-9.1233677E-1,6.258037E0,3.9298375E0,3.0963082E0,-3.0925256E-1,5.7876635E0,2.1876633E0],"categories":[],"categories_nodes":[],"categories_segments":[],"categories_sizes":[],"default_left":[0,0,0,0,0,0,0,0,0,0,0,0,0,0,0,0,0,0,0,0,0,0,0,0,0,0,0,0,0,0,0,0,0,0,0,0,0,0,0,0,0,0,0,0,0,0,0,0,0,0,0,0,0,0,0,0,0,0,0,0,0,0,0,0,0,0,0,0,0,0,0,0,0,0,0,0,0,0,0,0,0,0,0,0,0,0,0,0,0,0,0,0,0,0,0,0,0,0,0,0,0,0,0],"id":0,"left_children":[1,3,5,7,9,11,13,15,17,19,21,23,25,27,29,31,33,35,37,39,41,43,45,47,49,51,-1,53,-1,-1,55,-1,57,59,61,63,65,67,69,71,73,75,77,79,81,83,85,87,-1,89,91,93,95,97,99,-1,101,-1,-1,-1,-1,-1,-1,-1,-1,-1,-1,-1,-1,-1,-1,-1,-1,-1,-1,-1,-1,-1,-1,-1,-1,-1,-1,-1,-1,-1,-1,-1,-1,-1,-1,-1,-1,-1,-1,-1,-1,-1,-1,-1,-1,-1,-1],"loss_changes":[4.6159234E4,1.8609217E4,3.9223594E3,2.437314E3,1.3853223E3,1.7296777E3,6.923906E2,6.0613525E2,1.8950637E3,1.4707584E3,1.520918E3,1.3705186E3,3.0531191E3,4.072578E2,4.7757324E2,3.0915027E2,1.3717358E2,1.3559854E3,1.2299116E3,7.76589E2,1.7902588E3,6.6761523E2,1.2331216E3,1.4323436E2,8.724199E2,8.410746E2,0E0,1.831875E2,0E0,0E0,2.1366064E2,0E0,9.553589E0,2.051305E2,1.3218723E2,1.7789404E3,1.1909824E3,1.2324703E3,4.2505432E2,1.4969598E3,6.375868E2,8.4078174E2,2.4392242E0,7.650366E2,4.4102344E2,3.506798E2,1.8304619E3,5.882988E1,0E0,3.5452905E2,8.328867E2,4.299932E2,6.2723E2,1.7499707E2,1.3416943E2,0E0,3.9805908E0,0E0,0E0,0E0,0E0,0E0,0E0,0E0,0E0,0E0,0E0,0E0,0E0,0E0,0E0,0E0,0E0,0E0,0E0,0E0,0E0,0E0,0E0,0E0,0E0,0E0,0E0,0E0,0E0,0E0,0E0,0E0,0E0,0E0,0E0,0E0,0E0,0E0,0E0,0E0,0E0,0E0,0E0,0E0,0E0,0E0,0E0],"parents":[2147483647,0,0,1,1,2,2,3,3,4,4,5,5,6,6,7,7,8,8,9,9,10,10,11,11,12,12,13,13,14,14,15,15,16,16,17,17,18,18,19,19,20,20,21,21,22,22,23,23,24,24,25,25,27,27,30,30,32,32,33,33,34,34,35,35,36,36,37,37,38,38,39,39,40,40,41,41,42,42,43,43,44,44,45,45,46,46,47,47,49,49,50,50,51,51,52,52,53,53,54,54,56,56],"right_children":[2,4,6,8,10,12,14,16,18,20,22,24,26,28,30,32,34,36,38,40,42,44,46,48,50,52,-1,54,-1,-1,56,-1,58,60,62,64,66,68,70,72,74,76,78,80,82,84,86,88,-1,90,92,94,96,98,100,-1,102,-1,-1,-1,-1,-1,-1,-1,-1,-1,-1,-1,-1,-1,-1,-1,-1,-1,-1,-1,-1,-1,-1,-1,-1,-1,-1,-1,-1,-1,-1,-1,-1,-1,-1,-1,-1,-1,-1,-1,-1,-1,-1,-1,-1,-1,-1],"split_conditions":[1.8135832E1,2.674698E2,2.079E1,-5.320418E0,1.1983188E1,1.955708E2,2.2600416E1,8.707238E0,2.2398749E2,4.5E0,1.4410832E1,3.5338078E1,6.0999994E0,1.0000001E0,2.3195676E2,-1.2253751E1,2.4752995E2,6.6E0,1.7046251E1,6.130579E0,6.7000003E0,2.929415E2,5E-1,1E-1,9.346143E0,4E-1,1.0186121E1,2.2031664E1,7.3195415E0,8.788466E0,2.3333067E2,-1.6592526E0,9E-1,2.282479E1,2E-1,1.790344E1,5.4524994E0,2.6379474E2,2.2881415E2,-9.549583E0,3.4286874E2,3.1474396E2,2.808126E2,1.7313717E1,-2.0600002E0,3.4632867E2,2.984955E2,1.8848333E1,-2.2123368E0,1.8667082E1,1.9187918E1,1.8381666E1,5.3E0,1.2358714E2,1.6793031E2,-9.252548E-3,1.4654254E1,3.5876634E0,8.907475E-1,-5.566546E-1,-2.2346578E0,-1.0324663E0,1.6407475E0,7.760258E-1,2.3488717E0,-1.0354035E0,6.914767E-1,-4.5047998E-1,1.400914E0,-5.1233673E-1,4.1463084E0,7.3876634E0,-1.6638789E0,-1.067641E0,5.82266E-1,8.761122E0,7.8766334E-1,-4.5925257E-1,-1.8138789E0,-6.879571E-1,-1.7310536E0,-2.3835187E0,-1.6742235E0,-1.2764379E0,2.8407476E0,-1.4468284E0,2.6692562E0,-6.092526E-1,1.7907475E0,2.9111214E0,-1.1388788E0,3.7093284E0,6.204673E0,2.7835512E0,4.5889246E-1,4.4330373E0,-9.1233677E-1,6.258037E0,3.9298375E0,3.0963082E0,-3.0925256E-1,5.7876635E0,2.1876633E0],"split_indices":[0,3,0,0,2,3,0,2,3,1,0,3,1,1,3,0,3,1,0,2,1,3,1,1,2,1,0,0,0,0,3,0,1,3,1,2,0,3,3,0,3,3,3,2,0,3,3,0,0,0,0,0,1,3,3,0,2,0,0,0,0,0,0,0,0,0,0,0,0,0,0,0,0,0,0,0,0,0,0,0,0,0,0,0,0,0,0,0,0,0,0,0,0,0,0,0,0,0,0,0,0,0,0],"split_type":[0,0,0,0,0,0,0,0,0,0,0,0,0,0,0,0,0,0,0,0,0,0,0,0,0,0,0,0,0,0,0,0,0,0,0,0,0,0,0,0,0,0,0,0,0,0,0,0,0,0,0,0,0,0,0,0,0,0,0,0,0,0,0,0,0,0,0,0,0,0,0,0,0,0,0,0,0,0,0,0,0,0,0,0,0,0,0,0,0,0,0,0,0,0,0,0,0,0,0,0,0,0,0],"sum_hessian":[2.448E3,2.246E3,2.02E2,1.179E3,1.067E3,1.34E2,6.8E1,6.1E1,1.118E3,2.31E2,8.36E2,7.2E1,6.2E1,4.7E1,2.1E1,4E0,5.7E1,8.15E2,3.03E2,2.22E2,9E0,7.31E2,1.05E2,4E0,6.8E1,5.9E1,3E0,3.7E1,1E1,1.6E1,5E0,1E0,3E0,4.4E1,1.3E1,6.71E2,1.44E2,2.94E2,9E0,5E0,2.17E2,5E0,4E0,2.57E2,4.74E2,6.7E1,3.8E1,2E0,2E0,6E0,6.2E1,4.6E1,1.3E1,2.9E1,8E0,1E0,4E0,2E0,1E0,9E0,3.5E1,1.2E1,1E0,5.99E2,7.2E1,6.3E1,8.1E1,2.58E2,3.6E1,2E0,7E0,2E0,3E0,1.94E2,2.3E1,3E0,2E0,1E0,3E0,1.24E2,1.33E2,1.11E2,3.63E2,6.6E1,1E0,1.6E1,2.2E1,1E0,1E0,3E0,3E0,3.2E1,3E1,8E0,3.8E1,1.1E1,2E0,1.1E1,1.8E1,7E0,1E0,2E0,2E0],"tree_param":{"num_deleted":"0","num_feature":"4","num_nodes":"103","size_leaf_vector":"1"}},{"base_weights":[3.3269845E-2,-9.057649E-1,1.0427249E1,9.654774E-1,-3.1176748E0,8.011991E0,1.5001635E1,-8.6178833E-1,1.5478128E0,-3.4414456E0,-6.797636E-1,1.0296528E1,5.2376537E0,1.2883826E1,1.9546076E1,1.402429E0,-3.8268409E0,1.2088226E0,5.5424075E0,1.318806E0,-3.644941E0,-2.5357854E0,1.704408E0,-2.2007108E0,1.1052899E1,3.74526E0,7.8942447E0,4.5095515E0,1.3923283E1,2.0426888E1,7.7458496E0,3.3556604E0,-2.2629592E0,-5.333902E0,-2.136519E0,2.2784514E0,-1.6067353E-1,4.1929393E0,2.7435131E1,7.792084E0,-1.6070513E0,-5.69818E0,-3.2969468E0,8.306667E0,-3.1544828E0,-1.4521968E0,4.914798E0,2.231713E0,-1.7698693E0,1.1711223E1,2.841217E-1,2.2011962E0,8.661385E0,5.808915E0,8.4076244E-1,5.5721874E0,1.0877279E1,1.6724774E0,2.0972595E1,3.5428164E0,-5.718384E-2,-1.6850278E-1,1.6292834E0,-1.8147428E0,1.51834E-1,-6.38186E-1,-2.025464E0,5.220902E-1,-9.305286E-1,-9.7934544E-1,8.455958E-1,6.239793E-1,-4.652103E-1,1.9288629E0,-1.5158917E0,9.649368E0,1.987026E0,3.3906364E-1,5.0677986E0,-8.966188E-1,3.1327848E0,-1.9700152E0,-4.000078E-1,-6.959778E-1,-1.2914749E0,5.400894E0,-2.7792895E-1,-1.6774558E0,-6.678558E-2,1.180529E0,-1.0306041E0,-5.9623426E-1,2.5429006E0,-5.1786464E-1,1.5221355E0,3.0652015E0,5.9613743E0,-1.2542022E0,1.3962632E0,2.041271E0,3.247546E-1,3.995136E0,6.30961E-1,5.3605574E-1,2.3684018E0,1.3020419E0,-9.236987E-1,8.653817E-1,3.8510723E0,6.9844327E0,3.8578415E0],"categories":[],"categories_nodes":[],"categories_segments":[],"categories_sizes":[],"default_left":[0,0,0,0,0,0,0,0,0,0,0,0,0,0,0,0,0,0,0,0,0,0,0,0,0,0,0,0,0,0,0,0,0,0,0,0,0,0,0,0,0,0,0,0,0,0,0,0,0,0,0,0,0,0,0,0,0,0,0,0,0,0,0,0,0,0,0,0,0,0,0,0,0,0,0,0,0,0,0,0,0,0,0,0,0,0,0,0,0,0,0,0,0,0,0,0,0,0,0,0,0,0,0,0,0,0,0,0,0,0,0],"id":1,"left_children":[1,3,5,7,9,11,13,15,17,19,21,23,25,27,29,31,33,35,37,39,41,43,45,47,49,51,-1,53,55,57,59,61,63,65,67,69,71,73,75,77,79,81,83,85,87,89,91,93,-1,95,97,99,101,103,105,-1,107,-1,109,-1,-1,-1,-1,-1,-1,-1,-1,-1,-1,-1,-1,-1,-1,-1,-1,-1,-1,-1,-1,-1,-1,-1,-1,-1,-1,-1,-1,-1,-1,-1,-1,-1,-1,-1,-1,-1,-1,-1,-1,-1,-1,-1,-1,-1,-1,-1,-1,-1,-1,-1,-1],"loss_changes":[2.3912438E4,9.303387E3,2.1226152E3,1.2973851E3,8.1066504E2,8.0170996E2,4.122461E2,1.9858562E3,1.2445146E3,8.853467E2,5.441811E2,7.1436084E2,1.8830758E3,3.7244727E2,4.9651855E1,1.2103647E3,3.1467358E2,1.2498853E3,2.0121003E3,7.32238E2,6.042705E2,4.8906885E2,5.543696E2,9.5140564E1,4.858369E2,4.3638312E2,0E0,2.8485718E1,4.2126855E2,2.8966309E1,9.900134E1,8.973048E2,6.2163025E2,2.9020886E2,2.3740646E2,1.4434707E3,1.1711635E3,1.4593699E3,1.8067065E2,7.084304E2,4.8072665E2,4.6512036E2,7.266489E2,3.7478647E2,4.7032922E2,3.1266513E2,6.805765E2,4.2504597E1,0E0,5.893281E2,1.1701551E2,2.3465297E2,3.9945557E2,2.7838608E1,5.4513405E1,0E0,4.1718774E2,0E0,1.9055664E1,0E0,0E0,0E0,0E0,0E0,0E0,0E0,0E0,0E0,0E0,0E0,0E0,0E0,0E0,0E0,0E0,0E0,0E0,0E0,0E0,0E0,0E0,0E0,0E0,0E0,0E0,0E0,0E0,0E0,0E0,0E0,0E0,0E0,0E0,0E0,0E0,0E0,0E0,0E0,0E0,0E0,0E0,0E0,0E0,0E0,0E0,0E0,0E0,0E0,0E0,0E0,0E0],"parents":[2147483647,0,0,1,1,2,2,3,3,4,4,5,5,6,6,7,7,8,8,9,9,10,10,11,11,12,12,13,13,14,14,15,15,16,16,17,17,18,18,19,19,20,20,21,21,22,22,23,23,24,24,25,25,27,27,28,28,29,29,30,30,31,31,32,32,33,33,34,34,35,35,36,36,37,37,38,38,39,39,40,40,41,41,42,42,43,43,44,44,45,45,46,46,47,47,49,49,50,50,51,51,52,52,53,53,54,54,56,56,58,58],"right_children":[2,4,6,8,10,12,14,16,18,20,22,24,26,28,30,32,34,36,38,40,42,44,46,48,50,52,-1,54,56,58,60,62,64,66,68,70,72,74,76,78,80,82,84,86,88,90,92,94,-1,96,98,100,102,104,106,-1,108,-1,110,-1,-1,-1,-1,-1,-1,-1,-1,-1,-1,-1,-1,-1,-1,-1,-1,-1,-1,-1,-1,-1,-1,-1,-1,-1,-1,-1,-1,-1,-1,-1,-1,-1,-1,-1,-1,-1,-1,-1,-1,-1,-1,-1,-1,-1,-1,-1,-1,-1,-1,-1,-1],"split_conditions":[1.8135832E1,2.7131686E2,2.079E1,2.1708335E-1,1.4410832E1,1.955708E2,2E-1,1.3783817E1,2.0608229E1,8.435069E0,2E-1,3.5338078E1,6.0999994E0,6.4596855E1,7.9E0,2.135902E2,1.353172E2,1.7939847E2,1.93E1,-9.549583E0,-7.455834E0,2.863896E2,1.5367616E1,1E-1,1.8954777E1,4E-1,7.8942447E0,6.1803158E1,1.2609837E2,2.00237E1,2.0998335E1,1.000256E1,2.5510643E2,-4.5641665E0,1.7349704E2,2.7055735E1,1.2961249E1,7.0999994E0,1.6387915E1,3.019384E2,3.2999995E0,3.2555664E2,1.7462784E1,1.08955765E1,1.647125E1,1.5492084E1,2.975825E2,1.8848333E1,-1.7698693E0,1.6084589E1,1.9652176E1,1.8381666E1,1.3039754E1,2.2031664E1,2.1544167E1,5.5721874E0,1.5586932E2,1.6724774E0,1.9349179E2,3.5428164E0,-5.718384E-2,-1.6850278E-1,1.6292834E0,-1.8147428E0,1.51834E-1,-6.38186E-1,-2.025464E0,5.220902E-1,-9.305286E-1,-9.7934544E-1,8.455958E-1,6.239793E-1,-4.652103E-1,1.9288629E0,-1.5158917E0,9.649368E0,1.987026E0,3.3906364E-1,5.0677986E0,-8.966188E-1,3.1327848E0,-1.9700152E0,-4.000078E-1,-6.959778E-1,-1.2914749E0,5.400894E0,-2.7792895E-1,-1.6774558E0,-6.678558E-2,1.180529E0,-1.0306041E0,-5.9623426E-1,2.5429006E0,-5.1786464E-1,1.5221355E0,3.0652015E0,5.9613743E0,-1.2542022E0,1.3962632E0,2.041271E0,3.247546E-1,3.995136E0,6.30961E-1,5.3605574E-1,2.3684018E0,1.3020419E0,-9.236987E-1,8.653817E-1,3.8510723E0,6.9844327E0,3.8578415E0],"split_indices":[0,3,0,0,0,3,1,2,2,2,1,3,1,3,1,3,3,3,1,0,0,3,2,1,2,1,0,3,3,3,0,2,3,0,3,3,2,1,0,3,1,3,2,2,0,0,3,0,0,2,2,0,2,0,0,0,3,0,3,0,0,0,0,0,0,0,0,0,0,0,0,0,0,0,0,0,0,0,0,0,0,0,0,0,0,0,0,0,0,0,0,0,0,0,0,0,0,0,0,0,0,0,0,0,0,0,0,0,0,0,0],"split_type":[0,0,0,0,0,0,0,0,0,0,0,0,0,0,0,0,0,0,0,0,0,0,0,0,0,0,0,0,0,0,0,0,0,0,0,0,0,0,0,0,0,0,0,0,0,0,0,0,0,0,0,0,0,0,0,0,0,0,0,0,0,0,0,0,0,0,0,0,0,0,0,0,0,0,0,0,0,0,0,0,0,0,0,0,0,0,0,0,0,0,0,0,0,0,0,0,0,0,0,0,0,0,0,0,0,0,0,0,0,0,0],"sum_hessian":[2.448E3,2.246E3,2.02E2,1.217E3,1.029E3,1.34E2,6.8E1,2.94E2,9.23E2,9.08E2,1.21E2,7.2E1,6.2E1,4.9E1,1.9E1,1.67E2,1.27E2,8.52E2,7.1E1,3.7E1,8.71E2,6.8E1,5.3E1,4E0,6.8E1,5.9E1,3E0,6E0,4.3E1,1.7E1,2E0,1.09E2,5.8E1,6.6E1,6.1E1,4.78E2,3.74E2,6.8E1,3E0,1.1E1,2.6E1,1.24E2,7.47E2,3E0,6.5E1,2.7E1,2.6E1,2E0,2E0,6.4E1,4E0,4.6E1,1.3E1,4E0,2E0,1.5E1,2.8E1,1E0,1.6E1,1E0,1E0,3.8E1,7.1E1,2.4E1,3.4E1,2.1E1,4.5E1,1.2E1,4.9E1,4.2E1,4.36E2,1.43E2,2.31E2,5.5E1,1.3E1,2E0,1E0,7E0,4E0,2.4E1,2E0,1.03E2,2.1E1,3.81E2,3.66E2,1E0,2E0,3.5E1,3E1,7E0,2E1,9E0,1.7E1,1E0,1E0,5.6E1,8E0,2E0,2E0,8E0,3.8E1,7E0,6E0,2E0,2E0,1E0,1E0,6E0,2.2E1,1.1E1,5E0],"tree_param":{"num_deleted":"0","num_feature":"4","num_nodes":"111","size_leaf_vector":"1"}},{"base_weights":[5.2044295E-2,-5.290442E-1,9.221742E0,8.1146955E-1,-2.147683E0,8.362521E0,1.8119495E1,5.68681E-1,4.2504606E0,-4.9825338E-1,-2.5379527E0,1.0849888E1,4.659809E0,2.0840294E1,7.4678226E0,6.8474956E0,4.4890326E-1,5.9698353E0,8.430098E-1,-1.6241692E0,2.1124415E0,-2.817955E0,-7.913445E-1,8.956063E0,1.7865433E1,-9.558184E-2,7.5157747E0,6.9785495E0,8.2432785E0,4.328693E0,3.3777937E-1,1.5004323E1,4.628255E-2,-3.3469117E0,6.3399386E-1,3.0491273E0,9.61537E0,-3.0023532E0,9.721855E0,5.375635E-1,-3.8876812E0,4.736174E0,8.758371E-1,-2.500923E0,-4.5548096E0,-1.6265248E0,4.2662864E0,9.398058E0,-2.8997338E0,-2.3892567E0,2.092962E1,-2.0097792E0,6.8146453E0,2.935606E0,1.1218253E1,3.9765217E0,-2.6704618E-1,2.0060693E-1,-4.8606206E-2,9.47243E-1,5.271405E0,-1.3505715E0,5.582788E-1,2.373523E0,-1.1796257E0,3.4707558E-1,-1.8248725E-1,2.3406072E0,-4.8106426E-1,4.870676E0,1.9519962E0,2.3268163E0,-1.3629091E0,3.4611104E0,6.7374635E-1,7.3013675E-1,-6.784458E-1,-1.6455228E0,-3.1046155E-1,-1.1364725E0,7.895327E-1,-1.3917993E0,-6.6028714E-1,-1.5048907E0,2.8981643E-2,-3.21416E-1,-2.4046423E0,3.9993865E0,-1.8652144E-1,1.8688834E0,3.7115488E0,-1.2543184E-1,-9.497338E-1,1.1022993E0,7.049793E0,6.4060056E-1,-1.4525104E0,5.2710766E-1,2.8802152E0,1.2919192E0,-1.4690663E0,1.1235197E0,3.8884299E0],"categories":[],"categories_nodes":[],"categories_segments":[],"categories_sizes":[],"default_left":[0,0,0,0,0,0,0,0,0,0,0,0,0,0,0,0,0,0,0,0,0,0,0,0,0,0,0,0,0,0,0,0,0,0,0,0,0,0,0,0,0,0,0,0,0,0,0,0,0,0,0,0,0,0,0,0,0,0,0,0,0,0,0,0,0,0,0,0,0,0,0,0,0,0,0,0,0,0,0,0,0,0,0,0,0,0,0,0,0,0,0,0,0,0,0,0,0,0,0,0,0,0,0],"id":2,"left_children":[1,3,5,7,9,11,13,15,17,19,21,23,25,27,29,31,33,35,37,39,41,43,45,47,49,51,53,-1,55,-1,57,59,61,63,65,67,69,71,73,75,77,-1,79,81,83,85,87,89,-1,91,93,95,97,99,101,-1,-1,-1,-1,-1,-1,-1,-1,-1,-1,-1,-1,-1,-1,-1,-1,-1,-1,-1,-1,-1,-1,-1,-1,-1,-1,-1,-1,-1,-1,-1,-1,-1,-1,-1,-1,-1,-1,-1,-1,-1,-1,-1,-1,-1,-1,-1,-1],"loss_changes":[1.3054144E4,5.000979E3,9.6466504E2,1.0504519E3,6.7078125E2,1.192791E3,1.9214136E2,8.8360736E2,4.8123816E2,5.94255E2,4.1053223E2,9.028926E2,7.6126746E2,8.27832E1,1.9365947E2,1.2197847E3,8.156975E2,5.562964E2,1.01931757E3,6.92018E2,1.01770276E3,3.8892334E2,5.0537515E2,6.258379E2,1.0430332E3,3.0470178E2,5.605968E2,0E0,1.4912369E2,0E0,6.045086E-1,2.4863062E2,1.15671326E2,3.868764E2,7.185352E2,7.2014874E2,3.8828955E2,3.8331595E2,9.622296E1,3.9296094E2,3.08761E2,0E0,4.7679044E2,3.85563E2,2.3875635E2,3.5318085E2,7.6155774E2,5.2595166E2,0E0,3.2682953E0,5.344253E2,2.2163416E2,5.358577E1,2.0361208E2,1.9897363E2,0E0,0E0,0E0,0E0,0E0,0E0,0E0,0E0,0E0,0E0,0E0,0E0,0E0,0E0,0E0,0E0,0E0,0E0,0E0,0E0,0E0,0E0,0E0,0E0,0E0,0E0,0E0,0E0,0E0,0E0,0E0,0E0,0E0,0E0,0E0,0E0,0E0,0E0,0E0,0E0,0E0,0E0,0E0,0E0,0E0,0E0,0E0,0E0],"parents":[2147483647,0,0,1,1,2,2,3,3,4,4,5,5,6,6,7,7,8,8,9,9,10,10,11,11,12,12,13,13,14,14,15,15,16,16,17,17,18,18,19,19,20,20,21,21,22,22,23,23,24,24,25,25,26,26,28,28,30,30,31,31,32,32,33,33,34,34,35,35,36,36,37,37,38,38,39,39,40,40,42,42,43,43,44,44,45,45,46,46,47,47,49,49,50,50,51,51,52,52,53,53,54,54],"right_children":[2,4,6,8,10,12,14,16,18,20,22,24,26,28,30,32,34,36,38,40,42,44,46,48,50,52,54,-1,56,-1,58,60,62,64,66,68,70,72,74,76,78,-1,80,82,84,86,88,90,-1,92,94,96,98,100,102,-1,-1,-1,-1,-1,-1,-1,-1,-1,-1,-1,-1,-1,-1,-1,-1,-1,-1,-1,-1,-1,-1,-1,-1,-1,-1,-1,-1,-1,-1,-1,-1,-1,-1,-1,-1,-1,-1,-1,-1,-1,-1,-1,-1,-1,-1,-1,-1],"split_conditions":[1.8996248E1,2.7131686E2,4.6E0,1.7331667E1,1.1709688E1,1.955708E2,1.629174E1,6.989936E0,1.6214464E2,1.0853866E1,1.4410832E1,1.5920918E2,2.3546524E2,2.915137E2,1.9987917E1,1E-1,-6.130833E0,1.3849477E1,2.2881415E2,9.585739E0,1.08955765E1,1.1717083E1,3.3227448E2,1.570639E2,1.9425417E1,4E-1,2.0277502E1,6.9785495E0,5.3E0,4.328693E0,2.079E1,9.420584E0,-2.2725E0,8.049845E0,2.2398749E2,1.1609651E1,1E-1,1.08955765E1,4E-1,3.1187338E2,-3.808333E-1,4.736174E0,1.1165805E1,-7.455834E0,6.9E0,3.236517E2,1.5548335E1,1.2768586E1,-2.8997338E0,1.9187918E1,8.913181E0,1.9987917E1,2.1522574E2,3.2290982E2,1.2744457E1,3.9765217E0,-2.6704618E-1,2.0060693E-1,-4.8606206E-2,9.47243E-1,5.271405E0,-1.3505715E0,5.582788E-1,2.373523E0,-1.1796257E0,3.4707558E-1,-1.8248725E-1,2.3406072E0,-4.8106426E-1,4.870676E0,1.9519962E0,2.3268163E0,-1.3629091E0,3.4611104E0,6.7374635E-1,7.3013675E-1,-6.784458E-1,-1.6455228E0,-3.1046155E-1,-1.1364725E0,7.895327E-1,-1.3917993E0,-6.6028714E-1,-1.5048907E0,2.8981643E-2,-3.21416E-1,-2.4046423E0,3.9993865E0,-1.8652144E-1,1.8688834E0,3.7115488E0,-1.2543184E-1,-9.497338E-1,1.1022993E0,7.049793E0,6.4060056E-1,-1.4525104E0,5.2710766E-1,2.8802152E0,1.2919192E0,-1.4690663E0,1.1235197E0,3.8884299E0],"split_indices":[0,3,1,0,2,3,2,2,3,2,0,3,3,3,0,1,0,2,3,2,2,0,3,3,0,1,0,0,1,0,0,3,0,2,3,2,1,2,1,3,0,0,2,0,1,3,0,2,0,0,2,0,3,3,2,0,0,0,0,0,0,0,0,0,0,0,0,0,0,0,0,0,0,0,0,0,0,0,0,0,0,0,0,0,0,0,0,0,0,0,0,0,0,0,0,0,0,0,0,0,0,0,0],"split_type":[0,0,0,0,0,0,0,0,0,0,0,0,0,0,0,0,0,0,0,0,0,0,0,0,0,0,0,0,0,0,0,0,0,0,0,0,0,0,0,0,0,0,0,0,0,0,0,0,0,0,0,0,0,0,0,0,0,0,0,0,0,0,0,0,0,0,0,0,0,0,0,0,0,0,0,0,0,0,0,0,0,0,0,0,0,0,0,0,0,0,0,0,0,0,0,0,0,0,0,0,0,0,0],"sum_hessian":[2.448E3,2.303E3,1.45E2,1.26E3,1.043E3,1.34E2,1.1E1,1.178E3,8.2E1,2E2,8.43E2,7.9E1,5.5E1,8E0,3E0,2.1E1,1.157E3,5.4E1,2.8E1,1.4E2,6E1,7.26E2,1.17E2,6.4E1,1.5E1,2.1E1,3.4E1,6E0,2E0,1E0,2E0,9E0,1.2E1,5.3E1,1.104E3,3.1E1,2.3E1,2E1,8E0,7.2E1,6.8E1,4E0,5.6E1,6.16E2,1.1E2,1.01E2,1.6E1,6.3E1,1E0,2E0,1.3E1,1.7E1,4E0,1.6E1,1.8E1,1E0,1E0,1E0,1E0,2E0,7E0,3E0,9E0,2E0,5.1E1,7.77E2,3.27E2,1.5E1,1.6E1,6E0,1.7E1,2E0,1.8E1,6E0,2E0,4.3E1,2.9E1,4.3E1,2.5E1,1.5E1,4.1E1,7.4E1,5.42E2,1E2,1E1,9.4E1,7E0,5E0,1.1E1,3.2E1,3.1E1,1E0,1E0,2E0,1.1E1,7E0,1E1,2E0,2E0,1.4E1,2E0,4E0,1.4E1],"tree_param":{"num_deleted":"0","num_feature":"4","num_nodes":"103","size_leaf_vector":"1"}},{"base_weights":[5.805859E-2,-3.6138588E-1,6.6768394E0,5.4312855E-1,-1.5667342E0,5.981082E0,1.3947706E1,1.8017787E0,1.6038999E-1,-3.4584403E-1,-1.889882E0,4.8667088E0,1.1483694E1,1.5313829E1,4.7447267E0,1.228565E0,8.218486E0,-1.3689708E0,8.199298E-1,-8.485723E-1,5.0078754E0,-1.970326E0,4.509382E0,6.404209E0,2.7706237E0,1.2972438E1,3.827479E0,1.7219742E1,5.1267858E0,1.7051584E-1,1.9646113E0,1.4348922E0,-2.1334813E0,3.7026248E0,1.583528E1,-3.0053E-1,-3.4310484E0,7.624054E0,6.3110787E-1,-1.3303133E0,2.4034007E0,1.1277731E1,-7.2806966E-3,-1.6934282E0,-3.4755428E0,3.1422524E0,-1.2128423E0,4.773714E0,1.3207754E1,-7.418669E-1,4.9473715E0,4.756E0,2.9093785E0,1.7115093E0,6.741002E-1,7.006787E0,5.836879E0,2.348369E0,-4.1315176E-2,8.106783E-1,2.4537338E-2,3.998049E0,4.5928267E-1,7.8060403E0,1.9218494E0,-1.7866416E-1,3.4326773E0,-2.429994E0,-6.4564866E-1,5.233934E0,1.3213634E-1,-1.4280899E-1,5.617701E-1,-1.2259929E0,-1.8630557E-1,3.504692E0,2.3906955E-2,4.988259E0,-9.5433295E-1,3.1795957E0,-1.0625348E0,-1.4038775E0,-4.5357144E-1,-1.7687122E0,-7.667965E-1,-9.504814E-1,1.2846454E0,1.9445502E0,-5.23457E-1,-6.0926056E-1,4.9375696E0,6.232459E-1,-8.383679E-1,-4.418576E-1,2.0643923E0,1.6725541E-3,3.0167258E-1,3.3800435E0,-2.2698928E-1],"categories":[],"categories_nodes":[],"categories_segments":[],"categories_sizes":[],"default_left":[0,0,0,0,0,0,0,0,0,0,0,0,0,0,0,0,0,0,0,0,0,0,0,0,0,0,0,0,0,0,0,0,0,0,0,0,0,0,0,0,0,0,0,0,0,0,0,0,0,0,0,0,0,0,0,0,0,0,0,0,0,0,0,0,0,0,0,0,0,0,0,0,0,0,0,0,0,0,0,0,0,0,0,0,0,0,0,0,0,0,0,0,0,0,0,0,0,0,0],"id":3,"left_children":[1,3,5,7,9,11,13,15,17,19,21,23,25,27,29,31,33,35,37,39,41,43,45,47,49,51,53,55,57,-1,-1,59,-1,61,63,65,67,69,71,73,75,77,79,81,83,-1,85,87,89,91,93,-1,-1,-1,95,97,-1,-1,-1,-1,-1,-1,-1,-1,-1,-1,-1,-1,-1,-1,-1,-1,-1,-1,-1,-1,-1,-1,-1,-1,-1,-1,-1,-1,-1,-1,-1,-1,-1,-1,-1,-1,-1,-1,-1,-1,-1,-1,-1],"loss_changes":[6.8013535E3,2.5127983E3,6.5515674E2,6.3415454E2,3.891399E2,7.7192725E2,7.8208984E1,1.1190933E3,1.0208922E3,5.640745E2,4.1092993E2,3.4964795E2,2.0110742E2,1.0587427E2,1.8879875E1,4.971917E2,8.012776E2,6.7094727E2,9.0351904E2,3.024196E2,5.660796E2,3.1587695E2,3.540223E2,6.580044E2,3.8596063E2,1.6058838E1,2.5757408E1,4.640576E1,4.3738052E1,0E0,0E0,4.7480017E2,0E0,3.349096E2,6.976184E2,7.06608E2,6.0355505E2,1.332958E3,9.478988E2,3.2395544E2,5.381064E2,6.7170905E2,4.498917E2,3.4743115E2,2.4976208E2,0E0,7.803743E1,6.1257275E2,6.278799E2,1.2155096E2,3.9504095E2,0E0,0E0,0E0,6.591917E-1,1.0774187E2,0E0,0E0,0E0,0E0,0E0,0E0,0E0,0E0,0E0,0E0,0E0,0E0,0E0,0E0,0E0,0E0,0E0,0E0,0E0,0E0,0E0,0E0,0E0,0E0,0E0,0E0,0E0,0E0,0E0,0E0,0E0,0E0,0E0,0E0,0E0,0E0,0E0,0E0,0E0,0E0,0E0,0E0,0E0],"parents":[2147483647,0,0,1,1,2,2,3,3,4,4,5,5,6,6,7,7,8,8,9,9,10,10,11,11,12,12,13,13,14,14,15,15,16,16,17,17,18,18,19,19,20,20,21,21,22,22,23,23,24,24,25,25,26,26,27,27,28,28,31,31,33,33,34,34,35,35,36,36,37,37,38,38,39,39,40,40,41,41,42,42,43,43,44,44,46,46,47,47,48,48,49,49,50,50,54,54,55,55],"right_children":[2,4,6,8,10,12,14,16,18,20,22,24,26,28,30,32,34,36,38,40,42,44,46,48,50,52,54,56,58,-1,-1,60,-1,62,64,66,68,70,72,74,76,78,80,82,84,-1,86,88,90,92,94,-1,-1,-1,96,98,-1,-1,-1,-1,-1,-1,-1,-1,-1,-1,-1,-1,-1,-1,-1,-1,-1,-1,-1,-1,-1,-1,-1,-1,-1,-1,-1,-1,-1,-1,-1,-1,-1,-1,-1,-1,-1,-1,-1,-1,-1,-1,-1],"split_conditions":[1.8996248E1,2.7641278E2,4.6E0,1.0948973E1,1.1983188E1,2.2600416E1,1.6599998E1,1.0783487E1,1.7191668E0,3.1999996E0,3.1959505E1,1.955708E2,1.4654254E1,2.0998335E1,2.079E1,1.0739832E1,2.0889857E2,2.6E0,2.0545833E0,1.2798333E1,3.0400653E2,2.420314E1,2E-1,1.5920918E2,2.3546524E2,2.3158752E1,1.8335602E2,6.0999994E0,4.7999988E0,1.7051584E-1,1.9646113E0,1.4509538E2,-2.1334813E0,7.3522797E0,1.2295836E0,2.4E0,1.3246826E1,1.2000002E0,1.5111424E1,2.894115E2,2.863896E2,4.899999E0,-4.5641665E0,1.243434E1,2.1275E0,3.1422524E0,3.24806E2,1.3022852E2,1.9425417E1,1.9848333E1,1.2744457E1,4.756E0,2.9093785E0,1.7115093E0,1.678156E1,5.3E0,5.836879E0,2.348369E0,-4.1315176E-2,8.106783E-1,2.4537338E-2,3.998049E0,4.5928267E-1,7.8060403E0,1.9218494E0,-1.7866416E-1,3.4326773E0,-2.429994E0,-6.4564866E-1,5.233934E0,1.3213634E-1,-1.4280899E-1,5.617701E-1,-1.2259929E0,-1.8630557E-1,3.504692E0,2.3906955E-2,4.988259E0,-9.5433295E-1,3.1795957E0,-1.0625348E0,-1.4038775E0,-4.5357144E-1,-1.7687122E0,-7.667965E-1,-9.504814E-1,1.2846454E0,1.9445502E0,-5.23457E-1,-6.0926056E-1,4.9375696E0,6.232459E-1,-8.383679E-1,-4.418576E-1,2.0643923E0,1.6725541E-3,3.0167258E-1,3.3800435E0,-2.2698928E-1],"split_indices":[0,3,1,2,2,0,1,2,0,1,2,3,2,0,0,2,3,1,0,0,3,2,1,3,3,0,3,1,1,0,0,3,0,3,0,1,2,1,2,3,3,1,0,2,0,0,3,3,0,0,2,0,0,0,2,1,0,0,0,0,0,0,0,0,0,0,0,0,0,0,0,0,0,0,0,0,0,0,0,0,0,0,0,0,0,0,0,0,0,0,0,0,0,0,0,0,0,0,0],"split_type":[0,0,0,0,0,0,0,0,0,0,0,0,0,0,0,0,0,0,0,0,0,0,0,0,0,0,0,0,0,0,0,0,0,0,0,0,0,0,0,0,0,0,0,0,0,0,0,0,0,0,0,0,0,0,0,0,0,0,0,0,0,0,0,0,0,0,0,0,0,0,0,0,0,0,0,0,0,0,0,0,0,0,0,0,0,0,0,0,0,0,0,0,0,0,0,0,0,0,0],"sum_hessian":[2.448E3,2.303E3,1.45E2,1.316E3,9.87E2,1.34E2,1.1E1,3.06E2,1.01E3,2.07E2,7.8E2,1.13E2,2.1E1,9E0,2E0,2.82E2,2.4E1,3.04E2,7.06E2,1.9E2,1.7E1,7.71E2,9E0,6.4E1,4.9E1,1.7E1,4E0,7E0,2E0,1E0,1E0,2.76E2,6E0,1.6E1,8E0,2.01E2,1.03E2,1.8E1,6.88E2,1.66E2,2.4E1,7E0,1E1,6.53E2,1.18E2,4E0,5E0,5.3E1,1.1E1,1.9E1,3E1,7E0,1E1,2E0,2E0,2E0,5E0,1E0,1E0,1.42E2,1.34E2,2E0,1.4E1,3E0,5E0,1.97E2,4E0,2.1E1,8.2E1,7E0,1.1E1,3.64E2,3.24E2,3.3E1,1.33E2,4E0,2E1,5E0,2E0,2E0,8E0,3.6E1,6.17E2,3.1E1,8.7E1,4E0,1E0,4.2E1,1.1E1,2E0,9E0,8E0,1.1E1,7E0,2.3E1,1E0,1E0,1E0,1E0],"tree_param":{"num_deleted":"0","num_feature":"4","num_nodes":"99","size_leaf_vector":"1"}},{"base_weights":[6.369946E-2,-3.7533572E-1,3.7614815E0,5.726338E-1,-9.5767266E-1,3.3115318E0,8.478597E0,-9.6612287E-1,1.0097066E0,5.0858216E0,-1.0199132E0,-1.7455212E0,3.4522445E0,9.862886E0,4.1032786E0,2.022227E0,-1.7523781E0,2.3499234E0,1.9846821E-1,8.634348E0,-3.0283954E0,-6.616864E-1,-1.629081E0,4.725568E0,2.1167655E0,6.23061E-1,1.0243496E1,1.3506737E0,2.5642177E-1,-2.5691602E0,6.080043E0,-2.450378E0,3.0789034E0,3.9735193E0,3.4749478E-2,6.392462E-2,8.203294E0,1.1089178E1,-7.8998375E-1,-4.6263857E0,5.0453484E-1,-7.5843865E-1,5.1561556E0,-1.8654175E0,1.7504804E0,2.8114152E0,6.5928636E0,4.3514433E0,4.9914265E-1,7.0486623E-1,1.06395235E1,1.0617009E0,-1.6981632E0,3.8860128E0,9.367621E-1,-2.345335E0,-5.948023E-1,1.6036581E0,-1.3010241E0,8.8732594E-1,4.795852E0,-9.6875715E-1,7.6995534E-1,-5.231304E-1,2.6034927E-1,2.041769E0,4.7878056E0,-1.1461885E0,7.906958E-1,-1.8954653E0,-5.8691084E-1,-1.06070526E-1,-7.2762835E-1,2.3554635E0,-3.7975606E-1,-1.0490705E0,-4.597893E-1,-1.1371127E0,2.15651E0,1.6141825E0,2.2474207E-1,-1.1429147E-1,2.398575E0,7.364174E-1,2.8245213E0,-1.68636E0,6.910002E-1,3.4011757E0,1.290631E0],"categories":[],"categories_nodes":[],"categories_segments":[],"categories_sizes":[],"default_left":[0,0,0,0,0,0,0,0,0,0,0,0,0,0,0,0,0,0,0,0,0,0,0,0,0,0,0,0,0,0,0,0,0,0,0,0,0,0,0,0,0,0,0,0,0,0,0,0,0,0,0,0,0,0,0,0,0,0,0,0,0,0,0,0,0,0,0,0,0,0,0,0,0,0,0,0,0,0,0,0,0,0,0,0,0,0,0,0,0],"id":4,"left_children":[1,3,5,7,9,11,13,15,17,19,21,-1,23,25,27,29,31,33,35,37,39,41,43,45,47,-1,49,-1,-1,51,53,55,57,59,61,63,-1,65,67,69,-1,71,73,75,77,79,81,83,85,-1,87,-1,-1,-1,-1,-1,-1,-1,-1,-1,-1,-1,-1,-1,-1,-1,-1,-1,-1,-1,-1,-1,-1,-1,-1,-1,-1,-1,-1,-1,-1,-1,-1,-1,-1,-1,-1,-1,-1],"loss_changes":[3.9772568E3,1.2095111E3,5.2376416E2,5.618812E2,5.156228E2,3.271294E2,9.2777466E1,4.3822083E2,7.062366E2,4.2925742E2,2.9221008E2,0E0,3.913142E2,2.6140503E1,5.224167E0,7.4222974E2,5.032628E2,9.2079395E2,1.4810857E3,2.4011157E2,4.5414665E1,4.8124063E2,4.0022595E2,4.103794E2,4.2076733E2,0E0,2.1895142E1,0E0,0E0,3.7880344E2,3.8643854E2,3.083357E2,3.4254333E2,1.709812E3,8.511687E2,5.9006555E2,0E0,5.8264893E1,4.1215504E1,5.708107E0,0E0,5.6269586E2,2.5227628E2,2.4710571E2,1.02155475E3,3.1917053E2,5.8984644E2,4.4749805E2,7.748641E2,0E0,1.3131226E1,0E0,0E0,0E0,0E0,0E0,0E0,0E0,0E0,0E0,0E0,0E0,0E0,0E0,0E0,0E0,0E0,0E0,0E0,0E0,0E0,0E0,0E0,0E0,0E0,0E0,0E0,0E0,0E0,0E0,0E0,0E0,0E0,0E0,0E0,0E0,0E0,0E0,0E0],"parents":[2147483647,0,0,1,1,2,2,3,3,4,4,5,5,6,6,7,7,8,8,9,9,10,10,12,12,13,13,14,14,15,15,16,16,17,17,18,18,19,19,20,20,21,21,22,22,23,23,24,24,26,26,29,29,30,30,31,31,32,32,33,33,34,34,35,35,37,37,38,38,39,39,41,41,42,42,43,43,44,44,45,45,46,46,47,47,48,48,50,50],"right_children":[2,4,6,8,10,12,14,16,18,20,22,-1,24,26,28,30,32,34,36,38,40,42,44,46,48,-1,50,-1,-1,52,54,56,58,60,62,64,-1,66,68,70,-1,72,74,76,78,80,82,84,86,-1,88,-1,-1,-1,-1,-1,-1,-1,-1,-1,-1,-1,-1,-1,-1,-1,-1,-1,-1,-1,-1,-1,-1,-1,-1,-1,-1,-1,-1,-1,-1,-1,-1,-1,-1,-1,-1,-1,-1],"split_conditions":[1.7331667E1,2.2580682E2,2.2600416E1,6.1803158E1,6.989936E0,1.6782736E1,1.3479583E1,-2.9516666E0,1.2735799E2,3.1187338E2,1.7555305E1,-1.7455212E0,1.7702206E2,8.913181E0,1.710284E1,-6.130833E0,1.4410832E1,2.7E0,2.12E1,1.4E0,4.6500003E-1,1.694E1,1.5387917E1,1.3039754E1,1.3513193E1,6.23061E-1,2.00237E1,1.3506737E0,2.5642177E-1,5E-1,1E-1,4.610546E0,7.8E0,1.9E0,1.565E0,1.5416629E2,8.203294E0,1E-1,-7.172501E0,1E-1,5.0453484E-1,1.13254175E1,3.1031564E2,-7.6666705E-2,1.9914215E1,1.0495713E1,6.664103E1,1.5000001E0,2.2580682E2,7.0486623E-1,2.3195676E2,1.0617009E0,-1.6981632E0,3.8860128E0,9.367621E-1,-2.345335E0,-5.948023E-1,1.6036581E0,-1.3010241E0,8.8732594E-1,4.795852E0,-9.6875715E-1,7.6995534E-1,-5.231304E-1,2.6034927E-1,2.041769E0,4.7878056E0,-1.1461885E0,7.906958E-1,-1.8954653E0,-5.8691084E-1,-1.06070526E-1,-7.2762835E-1,2.3554635E0,-3.7975606E-1,-1.0490705E0,-4.597893E-1,-1.1371127E0,2.15651E0,1.6141825E0,2.2474207E-1,-1.1429147E-1,2.398575E0,7.364174E-1,2.8245213E0,-1.68636E0,6.910002E-1,3.4011757E0,1.290631E0],"split_indices":[0,3,0,3,2,3,2,0,3,3,2,0,3,2,2,0,0,1,1,1,0,0,0,2,2,0,3,0,0,1,1,3,1,1,0,3,0,1,0,1,0,0,3,0,2,2,3,1,3,0,3,0,0,0,0,0,0,0,0,0,0,0,0,0,0,0,0,0,0,0,0,0,0,0,0,0,0,0,0,0,0,0,0,0,0,0,0,0,0],"split_type":[0,0,0,0,0,0,0,0,0,0,0,0,0,0,0,0,0,0,0,0,0,0,0,0,0,0,0,0,0,0,0,0,0,0,0,0,0,0,0,0,0,0,0,0,0,0,0,0,0,0,0,0,0,0,0,0,0,0,0,0,0,0,0,0,0,0,0,0,0,0,0,0,0,0,0,0,0,0,0,0,0,0,0,0,0,0,0,0,0],"sum_hessian":[2.448E3,2.189E3,2.59E2,8.33E2,1.356E3,2.38E2,2.1E1,1.84E2,6.49E2,1.3E1,1.343E3,3E0,2.35E2,1.5E1,6E0,3.8E1,1.46E2,2.44E2,4.05E2,9E0,4E0,8.47E2,4.96E2,1.19E2,1.16E2,1E0,1.4E1,5E0,1E0,1.8E1,2E1,1.28E2,1.8E1,1.43E2,1.01E2,4.04E2,1E0,7E0,2E0,3E0,1E0,8.34E2,1.3E1,4.64E2,3.2E1,6E1,5.9E1,4.8E1,6.8E1,1E0,1.3E1,6E0,1.2E1,5E0,1.5E1,9E0,1.19E2,1.4E1,4E0,1.33E2,1E1,4.4E1,5.7E1,1.24E2,2.8E2,5E0,2E0,1E0,1E0,1E0,2E0,6.72E2,1.62E2,9E0,4E0,7.7E1,3.87E2,1.6E1,1.6E1,2.6E1,3.4E1,1E1,4.9E1,3.6E1,1.2E1,1.5E1,5.3E1,1.1E1,2E0],"tree_param":{"num_deleted":"0","num_feature":"4","num_nodes":"89","size_leaf_vector":"1"}},{"base_weights":[5.7939313E-2,-1.7036837E-1,3.6604254E0,8.715869E-1,-4.913737E-1,3.1682804E0,8.892023E0,-7.737514E-2,2.2758842E0,-2.146661E-1,-1.3298701E0,-4.8008695E0,3.448261E0,9.982832E0,2.2919865E0,4.7435945E-1,-1.8306161E0,-2.6305618E0,2.950486E0,-2.989411E-1,3.702759E0,-3.5205762E0,-9.986362E-1,-5.6494046E-2,-1.7720791E0,3.7107184E0,-3.9078078E0,1.1444021E1,2.7587178E0,-2.1484767E-1,1.2462416E0,-6.7583635E-2,4.1345873E0,-3.4816957E-1,-5.8378205E0,6.484919E-1,-4.5975633E0,1.934808E0,6.0644045E0,-3.350815E-1,1.5425406E1,-1.6517441E0,6.4644523E0,1.8157163E0,-3.9787273E0,-1.4100167E0,4.5052436E-1,5.0811334E0,1.7640256E0,-1.6293694E0,-3.245346E-1,4.7839293E0,3.860019E0,1.6363273E0,-3.9490417E-1,4.6595648E-2,-2.379662E0,-8.6132896E-1,2.5444658E0,-4.2742845E-1,3.404597E0,-1.9956533E0,1.5673987E0,-2.4021373E0,2.02153E0,1.2399771E0,-1.6204706E0,1.801995E0,2.3855526E-2,2.8200903E0,3.2727894E-1,-9.518919E-1,-5.8459833E-2,-3.1366825E-2,6.9728003E0,3.6556952E0,-1.0935975E-1,-1.5398123E0,-5.597891E-1,-3.263338E-1,-1.2133656E0,-4.8766842E-1,1.1313576E0,1.2055502E0,3.0709586E0,-1.7848003E-1,9.50744E-1,2.449359E0,-2.965908E-1],"categories":[],"categories_nodes":[],"categories_segments":[],"categories_sizes":[],"default_left":[0,0,0,0,0,0,0,0,0,0,0,0,0,0,0,0,0,0,0,0,0,0,0,0,0,0,0,0,0,0,0,0,0,0,0,0,0,0,0,0,0,0,0,0,0,0,0,0,0,0,0,0,0,0,0,0,0,0,0,0,0,0,0,0,0,0,0,0,0,0,0,0,0,0,0,0,0,0,0,0,0,0,0,0,0,0,0,0,0],"id":5,"left_children":[1,3,5,7,9,11,13,15,17,19,21,23,25,27,29,31,33,35,37,39,41,43,45,-1,-1,47,49,51,53,-1,-1,55,57,59,61,63,65,67,69,71,73,-1,75,-1,77,79,81,83,85,-1,-1,87,-1,-1,-1,-1,-1,-1,-1,-1,-1,-1,-1,-1,-1,-1,-1,-1,-1,-1,-1,-1,-1,-1,-1,-1,-1,-1,-1,-1,-1,-1,-1,-1,-1,-1,-1,-1,-1],"loss_changes":[2.0148656E3,7.7105457E2,3.4773474E2,7.237914E2,4.0853082E2,3.1776758E2,6.3512024E1,3.152486E2,7.32629E2,4.3887393E2,3.1358716E2,2.4396477E1,2.6741663E2,7.398706E1,1.9779896E1,4.922209E2,4.6132385E2,1.7712892E2,5.9867505E2,7.4337E2,7.4766724E2,2.7407507E2,2.2777078E2,0E0,0E0,3.2984424E2,1.5650757E1,1.4249512E1,4.0135445E1,0E0,0E0,3.8164255E2,9.988622E2,7.4654626E2,2.2394037E2,6.3378955E2,1.4165964E2,1.110026E3,7.695216E2,5.154788E2,3.6663544E2,0E0,8.639814E2,0E0,1.24517395E2,2.477373E2,5.9211945E2,3.6425842E2,1.8087508E2,0E0,0E0,6.661596E1,0E0,0E0,0E0,0E0,0E0,0E0,0E0,0E0,0E0,0E0,0E0,0E0,0E0,0E0,0E0,0E0,0E0,0E0,0E0,0E0,0E0,0E0,0E0,0E0,0E0,0E0,0E0,0E0,0E0,0E0,0E0,0E0,0E0,0E0,0E0,0E0,0E0],"parents":[2147483647,0,0,1,1,2,2,3,3,4,4,5,5,6,6,7,7,8,8,9,9,10,10,11,11,12,12,13,13,14,14,15,15,16,16,17,17,18,18,19,19,20,20,21,21,22,22,25,25,26,26,27,27,28,28,31,31,32,32,33,33,34,34,35,35,36,36,37,37,38,38,39,39,40,40,42,42,44,44,45,45,46,46,47,47,48,48,51,51],"right_children":[2,4,6,8,10,12,14,16,18,20,22,24,26,28,30,32,34,36,38,40,42,44,46,-1,-1,48,50,52,54,-1,-1,56,58,60,62,64,66,68,70,72,74,-1,76,-1,78,80,82,84,86,-1,-1,88,-1,-1,-1,-1,-1,-1,-1,-1,-1,-1,-1,-1,-1,-1,-1,-1,-1,-1,-1,-1,-1,-1,-1,-1,-1,-1,-1,-1,-1,-1,-1,-1,-1,-1,-1,-1,-1],"split_conditions":[1.8996248E1,1.4509538E2,4.6E0,9.645885E1,3.083007E2,8.707238E0,1.6599998E1,6.4999995E0,-1.2183334E0,3.068605E2,3.114676E2,1.9664999E1,3.7999995E0,2.0998335E1,2.079E1,1.7148247E1,1.859845E1,1.5E0,1.5226764E1,2.12E1,-4.0037503E0,-1.0857918E1,1.2798333E1,-5.6494046E-2,-1.7720791E0,1.955708E2,1.14410706E2,6.0999994E0,4.7999988E0,-2.1484767E-1,1.2462416E0,9.465494E1,3.879166E-1,1.7782688E1,9.465494E1,4E-1,9.820844E1,1.0739832E1,1.11E1,1.5416629E2,1.1717083E1,-1.6517441E0,1.0173333E1,1.8157163E0,2E-1,1.09775E1,5E-1,1.6214464E2,2.3546524E2,-1.6293694E0,-3.245346E-1,5.3E0,3.860019E0,1.6363273E0,-3.9490417E-1,4.6595648E-2,-2.379662E0,-8.6132896E-1,2.5444658E0,-4.2742845E-1,3.404597E0,-1.9956533E0,1.5673987E0,-2.4021373E0,2.02153E0,1.2399771E0,-1.6204706E0,1.801995E0,2.3855526E-2,2.8200903E0,3.2727894E-1,-9.518919E-1,-5.8459833E-2,-3.1366825E-2,6.9728003E0,3.6556952E0,-1.0935975E-1,-1.5398123E0,-5.597891E-1,-3.263338E-1,-1.2133656E0,-4.8766842E-1,1.1313576E0,1.2055502E0,3.0709586E0,-1.7848003E-1,9.50744E-1,2.449359E0,-2.965908E-1],"split_indices":[0,3,1,3,3,2,1,1,0,3,3,0,1,0,0,2,2,1,2,1,0,0,0,0,0,3,3,1,1,0,0,3,0,2,3,1,3,2,1,3,0,0,0,0,1,0,1,3,3,0,0,1,0,0,0,0,0,0,0,0,0,0,0,0,0,0,0,0,0,0,0,0,0,0,0,0,0,0,0,0,0,0,0,0,0,0,0,0,0],"split_type":[0,0,0,0,0,0,0,0,0,0,0,0,0,0,0,0,0,0,0,0,0,0,0,0,0,0,0,0,0,0,0,0,0,0,0,0,0,0,0,0,0,0,0,0,0,0,0,0,0,0,0,0,0,0,0,0,0,0,0,0,0,0,0,0,0,0,0,0,0,0,0,0,0,0,0,0,0,0,0,0,0,0,0,0,0,0,0,0,0],"sum_hessian":[2.448E3,2.303E3,1.45E2,5.42E2,1.761E3,1.34E2,1.1E1,3.24E2,2.18E2,1.325E3,4.36E2,4E0,1.3E2,9E0,2E0,2.47E2,7.7E1,2.6E1,1.92E2,1.298E3,2.7E1,5.6E1,3.8E2,1E0,3E0,1.26E2,4E0,7E0,2E0,1E0,1E0,2.16E2,3.1E1,5.7E1,2E1,1E1,1.6E1,1.46E2,4.6E1,1.296E3,2E0,6E0,2.1E1,2E0,5.4E1,2.96E2,8.4E1,7.3E1,5.3E1,2E0,2E0,2E0,5E0,1E0,1E0,2.11E2,5E0,1.2E1,1.9E1,5.3E1,4E0,1.9E1,1E0,4E0,6E0,1E0,1.5E1,4.5E1,1.01E2,2.7E1,1.9E1,6E1,1.236E3,1E0,1E0,1.1E1,1E1,3.4E1,2E1,2.65E2,3.1E1,5.2E1,3.2E1,6.2E1,1.1E1,2E1,3.3E1,1E0,1E0],"tree_param":{"num_deleted":"0","num_feature":"4","num_nodes":"89","size_leaf_vector":"1"}},{"base_weights":[4.966702E-2,-1.9037873E-1,2.0714E0,-1.7044214E0,-6.0487866E-2,1.7964755E0,4.9639225E0,1.1109941E1,-2.0734591E0,3.2828403E-1,-6.1393684E-1,1.6726187E0,2.5964723E0,5.793428E0,9.8491824E-1,3.8623068E-1,3.9731123E0,-2.4418812E0,3.4404104E0,1.3373556E0,-4.615877E-1,-1.189469E0,3.7602854E-1,1.9024466E0,-4.3355346E0,7.8889375E0,3.742746E0,6.714218E-1,-5.9654236E-1,-2.6850739E0,-2.5256175E-1,8.044696E0,-3.3985218E-1,1.8697603E0,-1.267909E0,-7.268244E-1,2.2795227E0,-1.7715075E0,-1.2174369E-1,-4.669793E-1,3.5841205E0,-1.4146326E0,2.0116427E0,-8.58768E-1,-5.93079E0,8.233536E-1,9.146327E0,5.820269E0,1.0414318E0,-3.4379083E-1,7.534676E-2,-6.2704885E-1,-1.3185666E0,-1.2971588E0,3.9982533E-1,1.5798226E-1,2.93777E0,-1.403709E0,6.994875E-1,4.2411602E-1,2.3213909E0,5.846459E-1,-1.1108699E0,3.9903726E-3,-4.9975184E-1,-2.6178026E-1,4.409417E0,-9.7543675E-1,-2.2482522E-1,5.1463217E-1,-4.813358E-1,-1.240168E0,2.4968425E-3,2.6904128E0,1.0354161E-1,1.1551094E0,4.351735E-1,-4.4301608E-1,1.492633E-1,-2.0571222E0,-1.9490577E-1,2.9718602E0,8.0204433E-1,2.0677137E0,6.8958096E-2,9.487493E-1,-6.4013994E-1],"categories":[],"categories_nodes":[],"categories_segments":[],"categories_sizes":[],"default_left":[0,0,0,0,0,0,0,0,0,0,0,0,0,0,0,0,0,0,0,0,0,0,0,0,0,0,0,0,0,0,0,0,0,0,0,0,0,0,0,0,0,0,0,0,0,0,0,0,0,0,0,0,0,0,0,0,0,0,0,0,0,0,0,0,0,0,0,0,0,0,0,0,0,0,0,0,0,0,0,0,0,0,0,0,0,0,0],"id":6,"left_children":[1,3,5,7,9,11,13,15,17,19,21,23,-1,25,27,-1,-1,29,31,33,35,37,39,41,43,45,47,-1,49,51,53,55,57,59,61,63,65,67,69,71,73,-1,75,77,79,-1,81,83,85,-1,-1,-1,-1,-1,-1,-1,-1,-1,-1,-1,-1,-1,-1,-1,-1,-1,-1,-1,-1,-1,-1,-1,-1,-1,-1,-1,-1,-1,-1,-1,-1,-1,-1,-1,-1,-1,-1],"loss_changes":[1.1889146E3,4.30583E2,1.9784082E2,8.4115015E2,4.3440533E2,1.8854529E2,6.690729E1,8.774432E1,3.5171295E2,9.459033E2,4.7505472E2,3.3412665E2,0E0,4.782373E1,1.1244179E1,0E0,0E0,8.397766E1,1.9419348E2,7.250264E2,4.858676E2,3.2729236E2,8.3193884E2,1.7424939E2,4.4823807E1,2.6646118E1,5.567108E1,0E0,1.6850619E0,1.3629944E2,1.15485466E2,6.0546387E1,9.2053856E1,1.1478291E3,7.043269E2,4.2257553E2,2.3223662E3,5.1337366E2,5.1214215E2,4.253E2,1.1129639E3,0E0,2.2653406E2,4.087278E0,2.4895859E1,0E0,3.0272217E0,3.4376892E1,4.7157387E1,0E0,0E0,0E0,0E0,0E0,0E0,0E0,0E0,0E0,0E0,0E0,0E0,0E0,0E0,0E0,0E0,0E0,0E0,0E0,0E0,0E0,0E0,0E0,0E0,0E0,0E0,0E0,0E0,0E0,0E0,0E0,0E0,0E0,0E0,0E0,0E0,0E0,0E0],"parents":[2147483647,0,0,1,1,2,2,3,3,4,4,5,5,6,6,7,7,8,8,9,9,10,10,11,11,13,13,14,14,17,17,18,18,19,19,20,20,21,21,22,22,23,23,24,24,25,25,26,26,28,28,29,29,30,30,31,31,32,32,33,33,34,34,35,35,36,36,37,37,38,38,39,39,40,40,42,42,43,43,44,44,46,46,47,47,48,48],"right_children":[2,4,6,8,10,12,14,16,18,20,22,24,-1,26,28,-1,-1,30,32,34,36,38,40,42,44,46,48,-1,50,52,54,56,58,60,62,64,66,68,70,72,74,-1,76,78,80,-1,82,84,86,-1,-1,-1,-1,-1,-1,-1,-1,-1,-1,-1,-1,-1,-1,-1,-1,-1,-1,-1,-1,-1,-1,-1,-1,-1,-1,-1,-1,-1,-1,-1,-1,-1,-1,-1,-1,-1,-1],"split_conditions":[1.7331667E1,-7.455834E0,2.2600416E1,7.386582E0,7.387918E0,2.3166216E1,1.4654254E1,-1.4028751E1,3.3657465E2,1.3783817E1,1.40337515E1,2.138897E1,2.5964723E0,2.3158752E1,1.8335602E2,3.8623068E-1,3.9731123E0,3.2089062E2,2E-1,3.083007E2,5.894167E0,1.2E0,1.879255E1,1.6782736E1,1.7858751E1,1.2287555E1,1.1799271E1,6.714218E-1,1.678156E1,3.0230542E2,1.1542478E1,1E-1,1.3000001E0,1.337825E1,2E-1,1.8681883E1,1.8000002E0,2.4599869E2,1.8519435E2,1.0041354E1,2.5307237E2,-1.4146326E0,1.07466545E2,1.7410833E1,2.2932877E1,8.233536E-1,7E-1,3E-1,1.4784782E2,-3.4379083E-1,7.534676E-2,-6.2704885E-1,-1.3185666E0,-1.2971588E0,3.9982533E-1,1.5798226E-1,2.93777E0,-1.403709E0,6.994875E-1,4.2411602E-1,2.3213909E0,5.846459E-1,-1.1108699E0,3.9903726E-3,-4.9975184E-1,-2.6178026E-1,4.409417E0,-9.7543675E-1,-2.2482522E-1,5.1463217E-1,-4.813358E-1,-1.240168E0,2.4968425E-3,2.6904128E0,1.0354161E-1,1.1551094E0,4.351735E-1,-4.4301608E-1,1.492633E-1,-2.0571222E0,-1.9490577E-1,2.9718602E0,8.0204433E-1,2.0677137E0,6.8958096E-2,9.487493E-1,-6.4013994E-1],"split_indices":[0,0,0,2,0,2,2,0,3,2,0,2,0,0,3,0,0,3,1,3,0,1,2,3,0,2,2,0,2,3,2,1,1,2,1,2,1,3,3,2,3,0,3,0,2,0,1,1,3,0,0,0,0,0,0,0,0,0,0,0,0,0,0,0,0,0,0,0,0,0,0,0,0,0,0,0,0,0,0,0,0,0,0,0,0,0,0],"split_type":[0,0,0,0,0,0,0,0,0,0,0,0,0,0,0,0,0,0,0,0,0,0,0,0,0,0,0,0,0,0,0,0,0,0,0,0,0,0,0,0,0,0,0,0,0,0,0,0,0,0,0,0,0,0,0,0,0,0,0,0,0,0,0,0,0,0,0,0,0,0,0,0,0,0,0,0,0,0,0,0,0,0,0,0,0,0,0],"sum_hessian":[2.448E3,2.189E3,2.59E2,1.72E2,2.017E3,2.38E2,2.1E1,4E0,1.68E2,1.185E3,8.32E2,2.35E2,3E0,1.7E1,4E0,1E0,3E0,1.58E2,1E1,5.2E2,6.65E2,5.26E2,3.06E2,2.27E2,8E0,7E0,1E1,2E0,2E0,1.42E2,1.6E1,4E0,6E0,4.32E2,8.8E1,6.07E2,5.8E1,3.4E2,1.86E2,2.43E2,6.3E1,3E0,2.24E2,3E0,5E0,2E0,5E0,5E0,5E0,1E0,1E0,1.07E2,3.5E1,4E0,1.2E1,1E0,3E0,2E0,4E0,4.02E2,3E1,3.8E1,5E1,3.4E2,2.67E2,4.7E1,1.1E1,1.38E2,2.02E2,8.3E1,1.03E2,2.7E1,2.16E2,2.3E1,4E1,5.1E1,1.73E2,2E0,1E0,4E0,1E0,4E0,1E0,4E0,1E0,3E0,2E0],"tree_param":{"num_deleted":"0","num_feature":"4","num_nodes":"87","size_leaf_vector":"1"}},{"base_weights":[4.2051725E-2,-1.2862194E-1,1.4794873E0,-3.3000592E-2,-1.3175266E0,1.3681749E0,6.8827853E0,-1.4194024E-1,1.3124777E0,-1.6447538E0,3.3536823E0,1.5079064E0,-3.1519904E0,2.7397337E0,-3.1737816E-1,-8.199127E-2,-3.12097E0,9.523391E-2,6.471987E0,-1.9004548E0,3.2273822E0,8.725769E0,-9.626201E-1,3.279738E0,1.1930442E0,1.5256348E0,-4.9654713E0,-1.1529619E-1,4.6100626E0,4.834407E-2,-4.8396964E0,5.641324E0,-9.6207124E-1,1.2803578E1,-2.9107082E-1,-1.5076865E0,-6.583731E0,-4.0310115E-1,6.958641E0,9.851723E0,6.3329345E-1,-1.6792262E0,2.0107841E0,4.4320235E0,-7.975981E-1,-2.8949475E0,1.5173614E0,-1.0986938E0,1.7852294E0,4.246931E-2,-1.8045574E0,-2.070018E-2,-1.1744134E0,4.157671E0,8.053252E-1,1.046122E0,-6.7485404E-1,-9.462499E-1,-2.3449457E0,1.9573745E0,-1.671085E0,1.1175597E0,-4.6506342E-1,-1.4946188E0,4.3289533E0,-8.826039E-1,5.523318E0,4.5851716E-1,-5.5229956E-1,2.1252244E0,-2.5976763E0,-4.9176535E-1,2.9021475E-1,2.588123E-1,2.610915E0,1.1147978E0,4.238837E0,1.0703759E0,-6.326636E-1,-2.516554E-1,1.4560583E0,-5.1353836E-1,2.3192884E-1,-1.9916286E-1,-1.7005887E0,1.0708968E-1,6.952985E-1],"categories":[],"categories_nodes":[],"categories_segments":[],"categories_sizes":[],"default_left":[0,0,0,0,0,0,0,0,0,0,0,0,0,0,0,0,0,0,0,0,0,0,0,0,0,0,0,0,0,0,0,0,0,0,0,0,0,0,0,0,0,0,0,0,0,0,0,0,0,0,0,0,0,0,0,0,0,0,0,0,0,0,0,0,0,0,0,0,0,0,0,0,0,0,0,0,0,0,0,0,0,0,0,0,0,0,0],"id":7,"left_children":[1,3,5,7,9,11,13,15,17,19,21,23,25,-1,-1,27,29,31,33,35,37,39,41,43,45,47,49,51,53,55,57,59,61,63,65,67,69,71,73,75,-1,-1,77,79,81,83,85,-1,-1,-1,-1,-1,-1,-1,-1,-1,-1,-1,-1,-1,-1,-1,-1,-1,-1,-1,-1,-1,-1,-1,-1,-1,-1,-1,-1,-1,-1,-1,-1,-1,-1,-1,-1,-1,-1,-1,-1],"loss_changes":[6.0100934E2,2.489259E2,1.4696124E2,2.974423E2,2.546691E2,1.6644495E2,9.898099E1,3.3495706E2,9.540016E2,1.9674234E2,2.6346265E2,1.3499994E2,7.543776E1,0E0,0E0,2.8822183E2,2.0177979E2,7.325522E2,1.2455331E3,2.5863245E2,1.1117522E2,1.6442963E1,1.07723145E2,1.7737042E2,2.8678952E2,9.066558E1,3.301729E1,3.2144397E2,1.9432672E2,1.1846815E2,9.576471E1,2.3439844E2,2.952358E2,5.0575293E2,7.978395E2,1.4044049E2,3.7333673E2,1.0056138E1,3.5027023E1,5.2483093E1,0E0,0E0,3.959867E1,6.850055E1,1.424669E1,9.524922E1,1.8304825E2,0E0,0E0,0E0,0E0,0E0,0E0,0E0,0E0,0E0,0E0,0E0,0E0,0E0,0E0,0E0,0E0,0E0,0E0,0E0,0E0,0E0,0E0,0E0,0E0,0E0,0E0,0E0,0E0,0E0,0E0,0E0,0E0,0E0,0E0,0E0,0E0,0E0,0E0,0E0,0E0],"parents":[2147483647,0,0,1,1,2,2,3,3,4,4,5,5,6,6,7,7,8,8,9,9,10,10,11,11,12,12,15,15,16,16,17,17,18,18,19,19,20,20,21,21,22,22,23,23,24,24,25,25,26,26,27,27,28,28,29,29,30,30,31,31,32,32,33,33,34,34,35,35,36,36,37,37,38,38,39,39,42,42,43,43,44,44,45,45,46,46],"right_children":[2,4,6,8,10,12,14,16,18,20,22,24,26,-1,-1,28,30,32,34,36,38,40,42,44,46,48,50,52,54,56,58,60,62,64,66,68,70,72,74,76,-1,-1,78,80,82,84,86,-1,-1,-1,-1,-1,-1,-1,-1,-1,-1,-1,-1,-1,-1,-1,-1,-1,-1,-1,-1,-1,-1,-1,-1,-1,-1,-1,-1,-1,-1,-1,-1,-1,-1,-1,-1,-1,-1,-1,-1],"split_conditions":[1.7331667E1,2.420314E1,3.4632867E2,2.1226265E1,3.1959505E1,3.3531903E2,5.3E0,1.59E1,2.4E0,1.59E1,2E-1,1.7858751E1,1.1983188E1,2.7397337E0,-3.1737816E-1,1.3900001E1,1.629174E1,2.5946783E2,6.6E0,1.4912919E1,2.51614E1,6.429583E0,2.5629163E0,3.1999996E0,1.8135832E1,1.804E1,1.7560835E1,1.2000003E1,-2.5391667E0,1.2050416E1,9.694166E0,1.5387917E1,2.153089E1,2.1275E0,2.12E1,2.3003514E2,2.51614E1,8.512917E0,-6.130833E0,2.4316669E0,6.3329345E-1,-1.6792262E0,4.3999996E0,9.0645685E0,1.7560835E1,1.6263872E1,1.2744457E1,-1.0986938E0,1.7852294E0,4.246931E-2,-1.8045574E0,-2.070018E-2,-1.1744134E0,4.157671E0,8.053252E-1,1.046122E0,-6.7485404E-1,-9.462499E-1,-2.3449457E0,1.9573745E0,-1.671085E0,1.1175597E0,-4.6506342E-1,-1.4946188E0,4.3289533E0,-8.826039E-1,5.523318E0,4.5851716E-1,-5.5229956E-1,2.1252244E0,-2.5976763E0,-4.9176535E-1,2.9021475E-1,2.588123E-1,2.610915E0,1.1147978E0,4.238837E0,1.0703759E0,-6.326636E-1,-2.516554E-1,1.4560583E0,-5.1353836E-1,2.3192884E-1,-1.9916286E-1,-1.7005887E0,1.0708968E-1,6.952985E-1],"split_indices":[0,2,3,2,2,3,1,1,1,1,1,0,2,0,0,1,2,3,1,0,2,0,0,1,0,0,0,1,0,0,0,0,2,0,1,3,2,0,0,0,0,0,1,2,0,2,2,0,0,0,0,0,0,0,0,0,0,0,0,0,0,0,0,0,0,0,0,0,0,0,0,0,0,0,0,0,0,0,0,0,0,0,0,0,0,0,0],"split_type":[0,0,0,0,0,0,0,0,0,0,0,0,0,0,0,0,0,0,0,0,0,0,0,0,0,0,0,0,0,0,0,0,0,0,0,0,0,0,0,0,0,0,0,0,0,0,0,0,0,0,0,0,0,0,0,0,0,0,0,0,0,0,0,0,0,0,0,0,0,0,0,0,0,0,0,0,0,0,0,0,0,0,0,0,0,0,0],"sum_hessian":[2.448E3,2.189E3,2.59E2,2.027E3,1.62E2,2.55E2,4E0,1.876E3,1.51E2,1.52E2,1E1,2.48E2,7E0,3E0,1E0,1.84E3,3.6E1,1.23E2,2.8E1,1.45E2,7E0,4E0,6E0,3.6E1,2.12E2,2E0,5E0,1.828E3,1.2E1,1.3E1,2.3E1,1.9E1,1.04E2,1.4E1,1.4E1,1.35E2,1E1,4E0,3E0,3E0,1E0,2E0,4E0,2.8E1,8E0,1.5E1,1.97E2,1E0,1E0,1E0,4E0,1.807E3,2.1E1,1E0,1.1E1,5E0,8E0,1.6E1,7E0,1.8E1,1E0,1.1E1,9.3E1,1E0,1.3E1,1.3E1,1E0,1.3E1,1.22E2,1E0,9E0,2E0,2E0,1E0,2E0,2E0,1E0,3E0,1E0,2E0,2.6E1,5E0,3E0,9E0,6E0,8.1E1,1.16E2],"tree_param":{"num_deleted":"0","num_feature":"4","num_nodes":"87","size_leaf_vector":"1"}},{"base_weights":[3.6492907E-2,-3.5017226E-2,1.9554751E0,6.449307E-1,-2.2073846E-1,4.7746336E-1,4.527075E0,7.57927E-2,2.4797692E0,-2.789596E0,-1.6983257E-1,-3.8565023E0,1.481637E0,7.1088915E0,2.3864167E0,-1.2840864E-1,5.16216E0,3.0921E0,-6.47937E0,-3.706234E0,3.6348057E0,3.6474332E-1,-4.85761E-1,1.1334801E0,-6.869847E0,-2.259093E0,2.3068917E0,-9.0680957E-1,8.12076E0,-1.3022156E0,4.6466365E0,6.207914E-1,-1.4748923E0,1.7623802E1,1.8893069E0,-1.738925E0,4.087083E0,-2.6836529E0,1.6175406E0,-5.2996297E0,-1.2790372E0,2.7610636E0,-9.436606E-1,-1.4966415E0,6.600323E-1,-2.3742218E0,-3.4167546E-1,-7.7787095E-1,2.7133017E0,-1.03524275E1,1.224404E0,-2.8473523E0,-1.3345718E-1,4.6427946E0,8.130741E-1,1.0078025E1,2.9735317E0,-4.538298E0,5.328617E-1,-1.0943285E0,5.9042625E0,7.318054E-2,2.3376412E0,-2.998564E-1,-2.0098617E0,9.0492725E-2,7.840219E0,-1.2041237E0,1.2184793E0,-8.594999E-1,1.044487E0,3.1696663E0,1.0333151E0,-3.4880203E-1,-2.00822E0,2.6935153E0,-8.2761437E-1,2.3753712E-1,-1.0190274E0,1.1015946E0,1.170244E-1,-1.1541104E0,7.9028255E-1,2.389612E0,-1.1887875E-1,1.251802E0,2.5078604E-1,-8.474316E-1,-3.4584448E0,-2.2134628E0,2.7644446E0,2.60598E-1,-1.3522468E0,-9.5967525E-1,8.996195E-1,2.3893323E0,2.2223999E-1,-1.3504653E0,7.100424E-1,3.8985845E-1,3.3038688E0,-4.1464177E-1,1.9014077E0,-1.4444676E-1,-1.8977876E0,1.1560402E0,-1.2216699E0,-5.349987E-1,4.255085E-2,2.3946762E-3,1.9675554E0],"categories":[],"categories_nodes":[],"categories_segments":[],"categories_sizes":[],"default_left":[0,0,0,0,0,0,0,0,0,0,0,0,0,0,0,0,0,0,0,0,0,0,0,0,0,0,0,0,0,0,0,0,0,0,0,0,0,0,0,0,0,0,0,0,0,0,0,0,0,0,0,0,0,0,0,0,0,0,0,0,0,0,0,0,0,0,0,0,0,0,0,0,0,0,0,0,0,0,0,0,0,0,0,0,0,0,0,0,0,0,0,0,0,0,0,0,0,0,0,0,0,0,0,0,0,0,0,0,0,0,0],"id":8,"left_children":[1,3,5,7,9,11,13,15,17,19,21,23,25,27,29,31,33,35,37,39,41,43,45,47,49,51,53,-1,55,57,59,61,63,65,67,69,71,-1,-1,73,75,-1,-1,77,79,81,83,-1,85,87,89,91,93,95,97,99,101,103,105,107,109,-1,-1,-1,-1,-1,-1,-1,-1,-1,-1,-1,-1,-1,-1,-1,-1,-1,-1,-1,-1,-1,-1,-1,-1,-1,-1,-1,-1,-1,-1,-1,-1,-1,-1,-1,-1,-1,-1,-1,-1,-1,-1,-1,-1,-1,-1,-1,-1,-1,-1],"loss_changes":[3.3613657E2,2.9841754E2,3.3231375E2,5.292602E2,2.4223528E2,2.5378104E2,1.5989246E2,4.0365634E2,6.783494E2,2.2547006E2,3.077217E2,1.7318874E2,1.5030305E2,1.6807227E2,1.6445624E2,3.782014E2,5.784801E2,5.502739E2,2.824401E2,1.1698111E2,2.1773982E2,3.7309845E2,3.1074313E2,3.6470432E1,2.0999771E2,1.0873825E1,1.3231213E2,0E0,1.0100104E2,4.992598E1,9.310104E1,6.494177E2,3.2611212E2,4.3436517E2,1.830031E2,1.27549385E2,3.5499683E2,0E0,0E0,1.0182269E2,2.3725623E2,0E0,0E0,4.0708014E2,4.7421863E2,6.076369E2,4.8608813E2,0E0,7.4708347E0,1.1687744E1,2.7420407E2,4.70991E1,3.8397495E1,1.8851562E2,2.1709209E2,5.9549316E1,8.203317E1,1.8710701E1,1.0744241E2,2.8080947E0,3.8524353E1,0E0,0E0,0E0,0E0,0E0,0E0,0E0,0E0,0E0,0E0,0E0,0E0,0E0,0E0,0E0,0E0,0E0,0E0,0E0,0E0,0E0,0E0,0E0,0E0,0E0,0E0,0E0,0E0,0E0,0E0,0E0,0E0,0E0,0E0,0E0,0E0,0E0,0E0,0E0,0E0,0E0,0E0,0E0,0E0,0E0,0E0,0E0,0E0,0E0,0E0],"parents":[2147483647,0,0,1,1,2,2,3,3,4,4,5,5,6,6,7,7,8,8,9,9,10,10,11,11,12,12,13,13,14,14,15,15,16,16,17,17,18,18,19,19,20,20,21,21,22,22,23,23,24,24,25,25,26,26,28,28,29,29,30,30,31,31,32,32,33,33,34,34,35,35,36,36,39,39,40,40,43,43,44,44,45,45,46,46,48,48,49,49,50,50,51,51,52,52,53,53,54,54,55,55,56,56,57,57,58,58,59,59,60,60],"right_children":[2,4,6,8,10,12,14,16,18,20,22,24,26,28,30,32,34,36,38,40,42,44,46,48,50,52,54,-1,56,58,60,62,64,66,68,70,72,-1,-1,74,76,-1,-1,78,80,82,84,-1,86,88,90,92,94,96,98,100,102,104,106,108,110,-1,-1,-1,-1,-1,-1,-1,-1,-1,-1,-1,-1,-1,-1,-1,-1,-1,-1,-1,-1,-1,-1,-1,-1,-1,-1,-1,-1,-1,-1,-1,-1,-1,-1,-1,-1,-1,-1,-1,-1,-1,-1,-1,-1,-1,-1,-1,-1,-1,-1],"split_conditions":[2.0277502E1,1.1183201E1,1E-1,1.0630672E1,1.6782736E1,2.079E1,2.0998335E1,8.400001E0,4.7E0,1.4335834E1,2.3546524E2,1.1298495E1,7.947679E1,1.6782736E1,2.2031664E1,5.360832E0,8.6E0,-5.570417E0,2.1522574E2,1.5986595E1,1.6317083E1,-9.933333E-1,2.4922757E2,8.707238E0,2.2580682E2,6.4596855E1,1.328789E2,-9.0680957E-1,5.3E0,1.1246759E1,8.913181E0,4.4816666E0,4.4999995E0,-7.6666705E-2,1.0800418E1,1.1113451E1,1.0703569E1,-2.6836529E0,1.6175406E0,1.2168319E1,1E-1,2.7610636E0,-9.436606E-1,8.362478E1,5.316667E-1,1.4150417E1,2.4982922E2,-7.7787095E-1,8.78872E0,1.20694E1,1.2744457E1,1.0853866E1,2.1544167E1,2.1544167E1,1.5586932E2,1.2218805E1,2.079E1,2.1177502E1,1.405845E1,2.2600416E1,2E-1,7.318054E-2,2.3376412E0,-2.998564E-1,-2.0098617E0,9.0492725E-2,7.840219E0,-1.2041237E0,1.2184793E0,-8.594999E-1,1.044487E0,3.1696663E0,1.0333151E0,-3.4880203E-1,-2.00822E0,2.6935153E0,-8.2761437E-1,2.3753712E-1,-1.0190274E0,1.1015946E0,1.170244E-1,-1.1541104E0,7.9028255E-1,2.389612E0,-1.1887875E-1,1.251802E0,2.5078604E-1,-8.474316E-1,-3.4584448E0,-2.2134628E0,2.7644446E0,2.60598E-1,-1.3522468E0,-9.5967525E-1,8.996195E-1,2.3893323E0,2.2223999E-1,-1.3504653E0,7.100424E-1,3.8985845E-1,3.3038688E0,-4.1464177E-1,1.9014077E0,-1.4444676E-1,-1.8977876E0,1.1560402E0,-1.2216699E0,-5.349987E-1,4.255085E-2,2.3946762E-3,1.9675554E0],"split_indices":[0,2,1,2,3,0,0,1,1,0,3,2,3,3,0,0,1,0,3,2,0,0,3,2,3,3,3,0,1,2,2,0,1,0,0,2,2,0,0,2,1,0,0,3,0,0,3,0,2,2,2,2,0,0,3,2,0,0,2,0,1,0,0,0,0,0,0,0,0,0,0,0,0,0,0,0,0,0,0,0,0,0,0,0,0,0,0,0,0,0,0,0,0,0,0,0,0,0,0,0,0,0,0,0,0,0,0,0,0,0,0],"split_type":[0,0,0,0,0,0,0,0,0,0,0,0,0,0,0,0,0,0,0,0,0,0,0,0,0,0,0,0,0,0,0,0,0,0,0,0,0,0,0,0,0,0,0,0,0,0,0,0,0,0,0,0,0,0,0,0,0,0,0,0,0,0,0,0,0,0,0,0,0,0,0,0,0,0,0,0,0,0,0,0,0,0,0,0,0,0,0,0,0,0,0,0,0,0,0,0,0,0,0,0,0,0,0,0,0,0,0,0,0,0,0],"sum_hessian":[2.448E3,2.361E3,8.7E1,5.06E2,1.855E3,5.6E1,3.1E1,3.87E2,1.19E2,3.5E1,1.82E3,1E1,4.6E1,1.3E1,1.8E1,3.73E2,1.4E1,1.12E2,7E0,3.1E1,4E0,6.76E2,1.144E3,4E0,6E0,8E0,3.8E1,1E0,1.2E1,7E0,1.1E1,2.4E2,1.33E2,2E0,1.2E1,1.9E1,9.3E1,6E0,1E0,1.8E1,1.3E1,2E0,2E0,9.2E1,5.84E2,8E1,1.064E3,1E0,3E0,4E0,2E0,6E0,2E0,1.4E1,2.4E1,8E0,4E0,2E0,5E0,2E0,9E0,2.29E2,1.1E1,1.23E2,1E1,1E0,1E0,3E0,9E0,1.6E1,3E0,7E0,8.6E1,5E0,1.3E1,1E0,1.2E1,4.2E1,5E1,4.7E1,5.37E2,6.2E1,1.8E1,6E0,1.058E3,1E0,2E0,1E0,3E0,1E0,1E0,2E0,4E0,1E0,1E0,7E0,7E0,5E0,1.9E1,1E0,7E0,2E0,2E0,1E0,1E0,3E0,2E0,1E0,1E0,1E0,8E0],"tree_param":{"num_deleted":"0","num_feature":"4","num_nodes":"111","size_leaf_vector":"1"}},{"base_weights":[3.2270785E-2,5.533074E-1,-1.3785231E-1,-1.1355174E-1,1.5018282E0,-2.0003599E-1,1.7175193E0,5.2734137E0,-2.212744E-1,-2.234111E0,1.9662628E0,-4.5556822E-1,2.6353115E-1,6.1406336E0,-1.4017968E0,7.076429E0,-8.317014E-1,-1.0179163E0,4.663706E-1,-1.0219309E-1,-3.0102336E0,7.084358E0,9.704462E-1,-3.5886443E0,-3.3682296E-1,-1.0546532E0,6.796854E-1,2.549832E0,1.12718525E1,3.4561896E0,-3.1491327E0,2.57195E0,2.7219696E0,2.3501651E0,-1.6790949E0,-8.674977E-1,2.2779365E0,8.679069E0,-2.407673E0,-3.7311816E0,8.1806555E0,3.7328616E-2,2.8511298E0,-4.242299E0,3.4816809E0,-6.2262736E-2,-1.2408291E0,-3.4262118E-1,-6.730755E0,4.376057E0,1.3629363E-1,8.531557E0,-1.5503947E-1,6.951031E0,2.8625882E0,5.5802674E0,-1.0080242E0,-5.0438294E0,5.7623446E-1,-6.941729E-2,1.2943037E0,-1.0231837E0,1.3610904E0,-5.463187E-1,2.6229734E0,-1.044544E-1,-1.4026998E0,1.6872306E0,-2.1963452E-1,-9.795723E-1,5.3191066E0,1.3769112E0,-1.373886E0,-1.3914527E0,-1.5153009E-1,2.8014247E0,-7.63564E-1,-3.3769578E-1,1.0912843E0,5.0193024E0,6.328851E-1,-6.3327444E-1,-2.7651706E0,1.821144E0,-3.3844013E-2,-9.9554604E-1,-9.3159676E-2,-1.6660273E-1,2.8032131E0,-2.3087173E0,-8.627055E-1,5.880635E0,1.062546E0,5.0761676E-1,-1.3922587E-1,3.130722E0,1.1350569E0,-1.23275E0,9.7690827E-1,-1.3514442E0,1.4523873E0,2.0594356E0,-5.1170343E-1,-6.312931E-1,-2.3248608E0,-9.839742E-1,1.1080958E0],"categories":[],"categories_nodes":[],"categories_segments":[],"categories_sizes":[],"default_left":[0,0,0,0,0,0,0,0,0,0,0,0,0,0,0,0,0,0,0,0,0,0,0,0,0,0,0,0,0,0,0,0,0,0,0,0,0,0,0,0,0,0,0,0,0,0,0,0,0,0,0,0,0,0,0,0,0,0,0,0,0,0,0,0,0,0,0,0,0,0,0,0,0,0,0,0,0,0,0,0,0,0,0,0,0,0,0,0,0,0,0,0,0,0,0,0,0,0,0,0,0,0,0,0,0,0,0],"id":9,"left_children":[1,3,5,7,9,11,13,15,17,19,21,23,25,27,29,31,-1,33,35,37,-1,39,41,43,45,47,49,51,53,55,57,-1,59,61,63,65,67,69,71,73,75,77,79,81,-1,83,85,87,89,91,93,95,97,-1,99,101,-1,103,105,-1,-1,-1,-1,-1,-1,-1,-1,-1,-1,-1,-1,-1,-1,-1,-1,-1,-1,-1,-1,-1,-1,-1,-1,-1,-1,-1,-1,-1,-1,-1,-1,-1,-1,-1,-1,-1,-1,-1,-1,-1,-1,-1,-1,-1,-1,-1,-1],"loss_changes":[2.171565E2,3.8158603E2,2.1343909E2,2.0717273E2,4.3643262E2,2.1192001E2,8.364334E2,1.21164505E2,1.916593E2,4.645855E2,1.1245889E3,4.277511E2,3.496061E2,4.3188837E2,3.1647125E2,1.5769012E1,0E0,3.6470453E2,4.5625748E2,4.8653183E2,0E0,4.5737695E2,3.2805966E2,4.6636975E2,2.7592575E2,6.1605347E2,9.715554E2,2.601995E2,9.34229E2,1.6353302E2,1.9348434E2,0E0,1.5106876E1,3.5561127E2,2.1715182E2,2.1393523E2,8.09888E2,5.984507E2,3.0977985E2,9.361397E0,4.3344287E2,5.3166473E2,6.028145E2,4.1528668E2,0E0,2.6543683E2,4.9957468E2,2.874858E2,4.1109924E1,7.1810583E2,3.9588766E2,5.7217407E0,1.7525024E2,0E0,1.2385441E2,8.6580505E1,0E0,1.2685516E2,1.3232712E2,0E0,0E0,0E0,0E0,0E0,0E0,0E0,0E0,0E0,0E0,0E0,0E0,0E0,0E0,0E0,0E0,0E0,0E0,0E0,0E0,0E0,0E0,0E0,0E0,0E0,0E0,0E0,0E0,0E0,0E0,0E0,0E0,0E0,0E0,0E0,0E0,0E0,0E0,0E0,0E0,0E0,0E0,0E0,0E0,0E0,0E0,0E0,0E0],"parents":[2147483647,0,0,1,1,2,2,3,3,4,4,5,5,6,6,7,7,8,8,9,9,10,10,11,11,12,12,13,13,14,14,15,15,17,17,18,18,19,19,21,21,22,22,23,23,24,24,25,25,26,26,27,27,28,28,29,29,30,30,32,32,33,33,34,34,35,35,36,36,37,37,38,38,39,39,40,40,41,41,42,42,43,43,45,45,46,46,47,47,48,48,49,49,50,50,51,51,52,52,54,54,55,55,57,57,58,58],"right_children":[2,4,6,8,10,12,14,16,18,20,22,24,26,28,30,32,-1,34,36,38,-1,40,42,44,46,48,50,52,54,56,58,-1,60,62,64,66,68,70,72,74,76,78,80,82,-1,84,86,88,90,92,94,96,98,-1,100,102,-1,104,106,-1,-1,-1,-1,-1,-1,-1,-1,-1,-1,-1,-1,-1,-1,-1,-1,-1,-1,-1,-1,-1,-1,-1,-1,-1,-1,-1,-1,-1,-1,-1,-1,-1,-1,-1,-1,-1,-1,-1,-1,-1,-1,-1,-1,-1,-1,-1,-1],"split_conditions":[1.4509538E2,9.645885E1,3.4632867E2,6.696387E0,9.504273E0,5E-1,5E-1,9.8791677E-1,1.2682018E1,9.19939E0,1.0739832E1,1.601896E2,1.7191668E0,1.243434E1,3.501751E2,1E-1,-8.317014E-1,-2.9516666E0,6.1803158E1,9.8791677E-1,-3.0102336E0,-4.3475E0,1.5226764E1,1.710284E1,3.083007E2,1.0629166E0,8E-1,9.504273E0,2.1249978E-2,8.6E0,3.582338E2,2.57195E0,4.6500003E-1,-7.172501E0,2.4099998E1,1.2000003E1,2.6E0,4E-1,7.5942073E0,-4.8787494E0,2.1177502E1,1.7633749E1,1.5315873E1,1.4571108E1,3.4816809E0,6.989936E0,3.1535736E2,9.8791677E-1,2.969674E2,1.7858335E0,1.2961249E1,9.12513E0,3.53698E2,6.951031E0,3.5191662E0,1.8E1,-1.0080242E0,-7.7666664E-1,1.3000001E0,-6.941729E-2,1.2943037E0,-1.0231837E0,1.3610904E0,-5.463187E-1,2.6229734E0,-1.044544E-1,-1.4026998E0,1.6872306E0,-2.1963452E-1,-9.795723E-1,5.3191066E0,1.3769112E0,-1.373886E0,-1.3914527E0,-1.5153009E-1,2.8014247E0,-7.63564E-1,-3.3769578E-1,1.0912843E0,5.0193024E0,6.328851E-1,-6.3327444E-1,-2.7651706E0,1.821144E0,-3.3844013E-2,-9.9554604E-1,-9.3159676E-2,-1.6660273E-1,2.8032131E0,-2.3087173E0,-8.627055E-1,5.880635E0,1.062546E0,5.0761676E-1,-1.3922587E-1,3.130722E0,1.1350569E0,-1.23275E0,9.7690827E-1,-1.3514442E0,1.4523873E0,2.0594356E0,-5.1170343E-1,-6.312931E-1,-2.3248608E0,-9.839742E-1,1.1080958E0],"split_indices":[3,3,3,2,2,1,1,0,2,2,2,3,0,2,3,1,0,0,3,0,0,0,2,2,3,0,1,2,0,1,3,0,0,0,1,1,1,1,2,0,0,0,2,2,0,2,3,0,3,0,2,2,3,0,0,2,0,0,1,0,0,0,0,0,0,0,0,0,0,0,0,0,0,0,0,0,0,0,0,0,0,0,0,0,0,0,0,0,0,0,0,0,0,0,0,0,0,0,0,0,0,0,0,0,0,0,0],"split_type":[0,0,0,0,0,0,0,0,0,0,0,0,0,0,0,0,0,0,0,0,0,0,0,0,0,0,0,0,0,0,0,0,0,0,0,0,0,0,0,0,0,0,0,0,0,0,0,0,0,0,0,0,0,0,0,0,0,0,0,0,0,0,0,0,0,0,0,0,0,0,0,0,0,0,0,0,0,0,0,0,0,0,0,0,0,0,0,0,0,0,0,0,0,0,0,0,0,0,0,0,0,0,0,0,0,0,0],"sum_hessian":[2.448E3,6.02E2,1.846E3,3.54E2,2.48E2,1.787E3,5.9E1,6E0,3.48E2,2.7E1,2.21E2,1.152E3,6.35E2,2.4E1,3.5E1,5E0,1E0,1.61E2,1.87E2,2.2E1,5E0,3.5E1,1.86E2,4.1E1,1.111E3,1.52E2,4.83E2,1.5E1,9E0,9E0,2.6E1,3E0,2E0,2.6E1,1.35E2,1.08E2,7.9E1,4E0,1.8E1,3E0,3.2E1,1.25E2,6.1E1,4E1,1E0,8.53E2,2.58E2,1.36E2,1.6E1,6.1E1,4.22E2,4E0,1.1E1,3E0,6E0,7E0,2E0,1.7E1,9E0,1E0,1E0,7E0,1.9E1,1.34E2,1E0,9.6E1,1.2E1,3.7E1,4.2E1,2E0,2E0,4E0,1.4E1,2E0,1E0,2.9E1,3E0,9.5E1,3E1,2E0,5.9E1,2.9E1,1.1E1,6E0,8.47E2,7.9E1,1.79E2,1.34E2,2E0,1.2E1,4E0,2E0,5.9E1,1.17E2,3.05E2,2E0,2E0,5E0,6E0,1E0,5E0,6E0,1E0,9E0,8E0,4E0,5E0],"tree_param":{"num_deleted":"0","num_feature":"4","num_nodes":"107","size_leaf_vector":"1"}},{"base_weights":[3.479909E-2,-8.887758E-1,1.1376017E-1,2.8981502E0,-1.049818E0,1.5230322E0,3.80812E-2,-1.3222352E0,2.7819133E0,4.5079203E0,-9.2598665E-1,-8.725955E-1,1.48028E-1,-1.8066216E0,-4.44902E-1,5.1249857E0,4.142448E-2,3.450241E0,1.6337511E1,-3.2110784E-2,-4.4302607E0,-3.084146E-1,-4.642327E0,6.9939423E0,1.1199482E-1,-2.0968096E0,1.199674E-1,3.825475E-1,-3.0028753E0,2.326435E0,1.9926871E0,-2.4476843E0,2.5201771E0,5.421733E0,-1.8657552E0,1.226881E0,5.717084E0,-1.1520593E0,8.746171E0,2.0864515E0,-5.804795E0,4.6572152E-1,-2.0238216E0,-5.9224763E0,4.099463E-1,8.67897E0,-1.2256961E0,9.917039E-1,-3.5204445E-3,-4.4306496E-1,-1.3508012E0,3.742915E-1,-5.902272E-1,9.527064E-1,-3.457728E-1,-1.3702854E0,4.059246E-1,-4.384575E-2,9.598046E-1,-1.1093594E0,-2.3950082E-1,-2.29518E-1,1.1610829E0,1.1111383E0,4.599658E0,9.535647E-1,-8.914055E-1,-7.9149425E-1,1.1465933E-1,7.615599E-1,3.364607E0,1.636153E0,-6.9724977E-1,-1.9595515E0,2.198456E-1,2.107388E-2,1.8642836E0,-7.31376E-1,6.949294E-1,6.343615E-1,-1.9091545E0,-8.5458285E-1,1.0698047E0,4.07311E0,1.6019843E0,-1.9017744E-1,8.284015E-1,-9.9640125E-1,1.6987015E-2],"categories":[],"categories_nodes":[],"categories_segments":[],"categories_sizes":[],"default_left":[0,0,0,0,0,0,0,0,0,0,0,0,0,0,0,0,0,0,0,0,0,0,0,0,0,0,0,0,0,0,0,0,0,0,0,0,0,0,0,0,0,0,0,0,0,0,0,0,0,0,0,0,0,0,0,0,0,0,0,0,0,0,0,0,0,0,0,0,0,0,0,0,0,0,0,0,0,0,0,0,0,0,0,0,0,0,0,0,0],"id":10,"left_children":[1,3,5,-1,7,9,11,13,15,17,19,21,23,25,27,29,31,33,35,37,39,41,43,45,47,49,51,53,55,57,-1,59,61,63,65,-1,-1,67,69,71,73,75,77,79,81,83,-1,85,87,-1,-1,-1,-1,-1,-1,-1,-1,-1,-1,-1,-1,-1,-1,-1,-1,-1,-1,-1,-1,-1,-1,-1,-1,-1,-1,-1,-1,-1,-1,-1,-1,-1,-1,-1,-1,-1,-1,-1,-1],"loss_changes":[1.7869804E2,3.3802533E2,2.4065619E2,0E0,2.0304982E2,8.4482965E2,2.1469917E2,7.5265564E1,8.326284E1,5.942511E2,2.0033044E2,4.8986145E2,4.7111566E2,6.454495E1,1.3872734E2,1.4270905E1,4.935779E1,5.2365735E2,5.529419E1,5.212998E2,1.2855818E2,2.6919016E2,1.9645782E2,2.221535E2,1.9348766E2,1.4249576E2,4.0116882E1,2.1805098E2,1.1523558E2,9.101011E0,0E0,5.2957916E0,2.070258E1,5.5613293E2,8.752209E1,0E0,0E0,1.081823E2,6.349637E1,5.7232456E1,5.7071014E1,3.1784116E2,1.1887665E2,9.859204E1,8.214777E1,7.469208E1,0E0,6.3751624E2,3.3622385E2,0E0,0E0,0E0,0E0,0E0,0E0,0E0,0E0,0E0,0E0,0E0,0E0,0E0,0E0,0E0,0E0,0E0,0E0,0E0,0E0,0E0,0E0,0E0,0E0,0E0,0E0,0E0,0E0,0E0,0E0,0E0,0E0,0E0,0E0,0E0,0E0,0E0,0E0,0E0,0E0],"parents":[2147483647,0,0,1,1,2,2,4,4,5,5,6,6,7,7,8,8,9,9,10,10,11,11,12,12,13,13,14,14,15,15,16,16,17,17,18,18,19,19,20,20,21,21,22,22,23,23,24,24,25,25,26,26,27,27,28,28,29,29,31,31,32,32,33,33,34,34,37,37,38,38,39,39,40,40,41,41,42,42,43,43,44,44,45,45,47,47,48,48],"right_children":[2,4,6,-1,8,10,12,14,16,18,20,22,24,26,28,30,32,34,36,38,40,42,44,46,48,50,52,54,56,58,-1,60,62,64,66,-1,-1,68,70,72,74,76,78,80,82,84,-1,86,88,-1,-1,-1,-1,-1,-1,-1,-1,-1,-1,-1,-1,-1,-1,-1,-1,-1,-1,-1,-1,-1,-1,-1,-1,-1,-1,-1,-1,-1,-1,-1,-1,-1,-1,-1,-1,-1,-1,-1,-1],"split_conditions":[-6.880834E0,6.130579E0,-4.1975007E0,2.8981502E0,3.3657465E2,1E-1,-9.933333E-1,1E-1,2E-1,3.20386E2,-4.5641665E0,-1.335E0,-8.558335E-1,3.159804E2,3.1415164E2,1E-1,3.53698E2,2.915137E2,-6.130833E0,-4.726667E0,4E-1,1.5E0,2.1000001E0,8.000001E-1,1.2295836E0,3.019384E2,1.4081478E1,5E-1,1.318308E1,-9.197499E0,1.9926871E0,-9.549583E0,-1.2912082E1,1.5986595E1,9.504273E0,1.226881E0,5.717084E0,2.808126E2,5E-1,1.3479583E1,1.658346E1,8.000001E-1,1.32E1,6.989936E0,1.4910838E2,1.7098933E2,-1.2256961E0,3.879166E-1,1.4525E0,-4.4306496E-1,-1.3508012E0,3.742915E-1,-5.902272E-1,9.527064E-1,-3.457728E-1,-1.3702854E0,4.059246E-1,-4.384575E-2,9.598046E-1,-1.1093594E0,-2.3950082E-1,-2.29518E-1,1.1610829E0,1.1111383E0,4.599658E0,9.535647E-1,-8.914055E-1,-7.9149425E-1,1.1465933E-1,7.615599E-1,3.364607E0,1.636153E0,-6.9724977E-1,-1.9595515E0,2.198456E-1,2.107388E-2,1.8642836E0,-7.31376E-1,6.949294E-1,6.343615E-1,-1.9091545E0,-8.5458285E-1,1.0698047E0,4.07311E0,1.6019843E0,-1.9017744E-1,8.284015E-1,-9.9640125E-1,1.6987015E-2],"split_indices":[0,2,0,0,3,1,0,1,1,3,0,0,0,3,3,1,3,3,0,0,1,1,1,1,0,3,2,1,2,0,0,0,0,2,2,0,0,3,1,2,2,1,1,2,3,3,0,0,0,0,0,0,0,0,0,0,0,0,0,0,0,0,0,0,0,0,0,0,0,0,0,0,0,0,0,0,0,0,0,0,0,0,0,0,0,0,0,0,0],"split_type":[0,0,0,0,0,0,0,0,0,0,0,0,0,0,0,0,0,0,0,0,0,0,0,0,0,0,0,0,0,0,0,0,0,0,0,0,0,0,0,0,0,0,0,0,0,0,0,0,0,0,0,0,0,0,0,0,0,0,0,0,0,0,0,0,0,0,0,0,0,0,0,0,0,0,0,0,0,0,0,0,0,0,0,0,0,0,0,0,0],"sum_hessian":[2.448E3,1.92E2,2.256E3,2E0,1.9E2,1.14E2,2.142E3,1.78E2,1.2E1,5.1E1,6.3E1,2.3E2,1.912E3,1.14E2,6.4E1,6E0,6E0,4.8E1,3E0,5.1E1,1.2E1,2.01E2,2.9E1,9E0,1.903E3,9.9E1,1.5E1,4.9E1,1.5E1,3E0,3E0,3E0,3E0,3.5E1,1.3E1,1E0,2E0,4.6E1,5E0,2E0,1E1,1.39E2,6.2E1,2.3E1,6E0,8E0,1E0,2.2E2,1.683E3,8E1,1.9E1,1E1,5E0,1.7E1,3.2E1,1.1E1,4E0,1E0,2E0,1E0,2E0,1E0,2E0,3.1E1,4E0,2E0,1.1E1,2.3E1,2.3E1,2E0,3E0,1E0,1E0,9E0,1E0,1.31E2,8E0,5.7E1,5E0,1E0,2.2E1,3E0,3E0,2E0,6E0,1.15E2,1.05E2,2.9E1,1.654E3],"tree_param":{"num_deleted":"0","num_feature":"4","num_nodes":"89","size_leaf_vector":"1"}},{"base_weights":[3.386755E-2,4.9118122E-1,-8.8463046E-2,2.3469236E-1,3.628796E0,-1.946087E-1,7.2224027E-1,4.088786E-1,-2.1318512E0,-4.1870966E0,5.176749E0,-4.411179E0,-1.3957071E-1,6.3775706E0,4.5584238E-1,2.1440592E-1,2.4963763E0,-3.610636E0,4.2094347E-1,-2.1015751E0,-3.221693E-1,8.225686E0,-8.4436464E-1,3.6964943E0,-5.406771E0,1.4333312E-1,-7.4343485E-1,1.0652765E-1,1.2627308E1,8.0984335E0,2.7257794E-1,-6.1426574E-1,7.526806E-1,-1.2383472E0,4.4879665E0,-4.4781246E0,-1.2359263E0,2.6623518E0,-3.6977801E0,3.9663607E-1,-1.3109726E0,1.3718804E1,5.803075E0,-7.5698423E0,3.4646044E0,-7.387754E-1,2.4021978E0,-7.746099E0,-2.2928338E0,7.188628E-2,4.6365213E0,-9.502139E-1,2.9257913E0,4.826049E0,-1.866503E0,2.181933E1,-7.738164E-1,4.7380802E-1,2.8000088E0,3.0513442E0,-5.0608575E-2,6.6985184E-1,-3.6775386E-1,4.5074716E-1,-2.8251967E-1,3.3753283E-2,-1.3930861E0,2.8163729E0,1.7864323E-1,1.6902553E-1,-1.4635438E0,4.4036967E-1,-1.089231E0,-8.051592E-1,1.3719754E0,6.059029E-1,-1.6896191E0,-4.669925E-1,-1.2294517E-1,-1.8975117E0,5.6977744E0,3.2841304E-1,2.1502783E0,-2.609863E0,-4.5765555E-1,1.5945421E0,-1.4233721E0,-1.1746118E0,-2.812724E0,-1.2118338E0,2.014001E0,5.133108E-1,-1.7251978E-2,-1.0457811E0,1.5958105E0,-4.8804012E-1,2.029517E-2,2.5577524E0,1.15934044E-1,4.2503873E-1,1.6470605E0,8.615221E0,1.2034779E0,-1.2207065E0,8.7248904E-1,1.848324E0,1.2735645E-1,-1.3632506E0,7.527552E-2],"categories":[],"categories_nodes":[],"categories_segments":[],"categories_sizes":[],"default_left":[0,0,0,0,0,0,0,0,0,0,0,0,0,0,0,0,0,0,0,0,0,0,0,0,0,0,0,0,0,0,0,0,0,0,0,0,0,0,0,0,0,0,0,0,0,0,0,0,0,0,0,0,0,0,0,0,0,0,0,0,0,0,0,0,0,0,0,0,0,0,0,0,0,0,0,0,0,0,0,0,0,0,0,0,0,0,0,0,0,0,0,0,0,0,0,0,0,0,0,0,0,0,0,0,0,0,0,0,0],"id":11,"left_children":[1,3,5,7,9,11,13,15,17,19,21,23,25,27,29,31,33,35,37,-1,39,41,43,45,47,49,51,53,55,57,59,61,63,65,67,69,71,73,75,-1,77,79,81,83,85,-1,-1,87,89,91,93,95,97,99,-1,101,103,-1,-1,105,107,-1,-1,-1,-1,-1,-1,-1,-1,-1,-1,-1,-1,-1,-1,-1,-1,-1,-1,-1,-1,-1,-1,-1,-1,-1,-1,-1,-1,-1,-1,-1,-1,-1,-1,-1,-1,-1,-1,-1,-1,-1,-1,-1,-1,-1,-1,-1,-1],"loss_changes":[1.3704897E2,4.1521094E2,1.6648029E2,1.9832472E2,4.935224E2,3.9622668E2,3.345641E2,1.8092944E2,1.2609601E2,7.398683E1,6.1275934E2,1.9756866E2,2.8864764E2,3.9057855E2,2.9892484E2,1.8334407E2,2.8820312E2,3.7726074E1,1.2985744E2,0E0,8.236778E0,2.1315796E2,3.73985E2,9.937097E1,1.2792987E2,3.691655E2,4.1172986E2,2.0922269E2,6.328013E2,2.5512207E1,1.8964503E2,2.8481702E2,3.177663E2,6.492302E1,4.71234E2,3.302469E1,5.0656265E1,1.0421869E2,6.6670845E1,0E0,2.6218891E-2,7.5436926E2,1.0137262E2,2.0870117E1,1.4674911E2,0E0,0E0,3.1960571E1,1.8442097E2,2.406133E2,1.1837811E2,3.5202213E2,4.0909845E2,1.2785645E0,0E0,2.533147E2,4.823387E1,0E0,0E0,1.7709636E2,2.585768E2,0E0,0E0,0E0,0E0,0E0,0E0,0E0,0E0,0E0,0E0,0E0,0E0,0E0,0E0,0E0,0E0,0E0,0E0,0E0,0E0,0E0,0E0,0E0,0E0,0E0,0E0,0E0,0E0,0E0,0E0,0E0,0E0,0E0,0E0,0E0,0E0,0E0,0E0,0E0,0E0,0E0,0E0,0E0,0E0,0E0,0E0,0E0,0E0],"parents":[2147483647,0,0,1,1,2,2,3,3,4,4,5,5,6,6,7,7,8,8,9,9,10,10,11,11,12,12,13,13,14,14,15,15,16,16,17,17,18,18,20,20,21,21,22,22,23,23,24,24,25,25,26,26,27,27,28,28,29,29,30,30,31,31,32,32,33,33,34,34,35,35,36,36,37,37,38,38,40,40,41,41,42,42,43,43,44,44,47,47,48,48,49,49,50,50,51,51,52,52,53,53,55,55,56,56,59,59,60,60],"right_children":[2,4,6,8,10,12,14,16,18,20,22,24,26,28,30,32,34,36,38,-1,40,42,44,46,48,50,52,54,56,58,60,62,64,66,68,70,72,74,76,-1,78,80,82,84,86,-1,-1,88,90,92,94,96,98,100,-1,102,104,-1,-1,106,108,-1,-1,-1,-1,-1,-1,-1,-1,-1,-1,-1,-1,-1,-1,-1,-1,-1,-1,-1,-1,-1,-1,-1,-1,-1,-1,-1,-1,-1,-1,-1,-1,-1,-1,-1,-1,-1,-1,-1,-1,-1,-1,-1,-1,-1,-1,-1,-1],"split_conditions":[1.2735799E2,1.19996E2,1.6656666E1,1.51E1,1.1500003E-1,1.328789E2,1.6798334E1,1.784816E1,2.57E1,1.3905509E1,1.7633749E1,-2.8058336E0,8.44E0,1.5226764E1,1.3022852E2,5.977424E1,2.1249978E-2,9.820844E1,3.11E1,-2.1015751E0,-6.130833E0,1.0739832E1,9.726664E0,-3.6870832E0,2.2E0,8.2025E0,1.07E1,1.7349704E2,1.662444E1,1.8135832E1,9.885262E0,-4.5641665E0,2.7999997E0,-1.6037501E0,5.5754166E0,9.504273E0,1.8218275E1,1.3139745E1,8.0875015E-1,3.9663607E-1,-3.5120833E0,3.7337496E0,1.2253712E2,1.9987917E1,1.3608762E1,-7.387754E-1,2.4021978E0,9.585739E0,5.8316665E0,1.7349704E2,1.9109366E2,2.9814017E2,1.8519435E2,1E-1,-1.866503E0,1E-1,1E-1,4.7380802E-1,2.8000088E0,1.8667082E1,1.3909221E2,6.6985184E-1,-3.6775386E-1,4.5074716E-1,-2.8251967E-1,3.3753283E-2,-1.3930861E0,2.8163729E0,1.7864323E-1,1.6902553E-1,-1.4635438E0,4.4036967E-1,-1.089231E0,-8.051592E-1,1.3719754E0,6.059029E-1,-1.6896191E0,-4.669925E-1,-1.2294517E-1,-1.8975117E0,5.6977744E0,3.2841304E-1,2.1502783E0,-2.609863E0,-4.5765555E-1,1.5945421E0,-1.4233721E0,-1.1746118E0,-2.812724E0,-1.2118338E0,2.014001E0,5.133108E-1,-1.7251978E-2,-1.0457811E0,1.5958105E0,-4.8804012E-1,2.029517E-2,2.5577524E0,1.15934044E-1,4.2503873E-1,1.6470605E0,8.615221E0,1.2034779E0,-1.2207065E0,8.7248904E-1,1.848324E0,1.2735645E-1,-1.3632506E0,7.527552E-2],"split_indices":[3,3,0,1,0,3,0,2,1,2,0,0,0,2,3,3,0,3,1,0,0,2,2,0,1,0,1,3,2,0,2,0,1,0,0,2,2,3,0,0,0,0,3,0,2,0,0,2,0,3,3,3,3,1,0,1,1,0,0,0,3,0,0,0,0,0,0,0,0,0,0,0,0,0,0,0,0,0,0,0,0,0,0,0,0,0,0,0,0,0,0,0,0,0,0,0,0,0,0,0,0,0,0,0,0,0,0,0,0],"split_type":[0,0,0,0,0,0,0,0,0,0,0,0,0,0,0,0,0,0,0,0,0,0,0,0,0,0,0,0,0,0,0,0,0,0,0,0,0,0,0,0,0,0,0,0,0,0,0,0,0,0,0,0,0,0,0,0,0,0,0,0,0,0,0,0,0,0,0,0,0,0,0,0,0,0,0,0,0,0,0,0,0,0,0,0,0,0,0,0,0,0,0,0,0,0,0,0,0,0,0,0,0,0,0,0,0,0,0,0,0],"sum_hessian":[2.448E3,5.16E2,1.932E3,4.78E2,3.8E1,1.709E3,2.23E2,4.46E2,3.2E1,6E0,3.2E1,2.1E1,1.688E3,9E0,2.14E2,4.09E2,3.7E1,2E1,1.2E1,3E0,3E0,2.1E1,1.1E1,2E0,1.9E1,1.15E3,5.38E2,5E0,4E0,4E0,2.1E2,1.61E2,2.48E2,1.3E1,2.4E1,1.4E1,6E0,8E0,4E0,1E0,2E0,5E0,1.6E1,4E0,7E0,1E0,1E0,1E1,9E0,1.133E3,1.7E1,5.1E2,2.8E1,3E0,2E0,2E0,2E0,1E0,3E0,2.1E1,1.89E2,2.8E1,1.33E2,1.72E2,7.6E1,1E1,3E0,1E1,1.4E1,1E0,1.3E1,3E0,3E0,2E0,6E0,1E0,3E0,1E0,1E0,1E0,4E0,4E0,1.2E1,3E0,1E0,6E0,1E0,4E0,6E0,8E0,1E0,8.2E1,1.051E3,1E0,1.6E1,3.06E2,2.04E2,8E0,2E1,1E0,2E0,1E0,1E0,1E0,1E0,9E0,1.2E1,1.1E1,1.78E2],"tree_param":{"num_deleted":"0","num_feature":"4","num_nodes":"109","size_leaf_vector":"1"}},{"base_weights":[3.0282034E-2,1.5616772E-2,3.0072508E0,7.5395286E-2,-8.7145805E-1,7.439678E0,-1.3892269E-1,3.7905395E-2,2.892122E0,-1.0596802E0,3.9479687E0,3.0945587E0,9.304905E0,-3.023865E0,2.1968157E0,5.875362E-2,-2.295864E0,-2.1394567E0,5.5148845E0,-7.4393183E-1,-5.8886633E0,2.0623796E0,-1.6027766E0,1.4708151E0,-7.826357E-2,3.6259596E0,5.6124777E-1,-1.0963552E0,-1.6978627E-1,1.3295429E0,-7.7044994E-1,1.8682862E-2,3.109014E0,2.6863363E0,-3.70931E0,2.3518376E0,-1.5125662E0,5.04961E0,3.3223104E0,-1.9554753E0,-1.1735712E-1,3.0883886E-2,-6.6504827E0,-5.046407E-1,1.579382E-1,1.2179316E-2,-1.3091983E0,5.417163E-1,4.140695E0,2.348089E0,-1.6666833E-1,1.6971703E-1,-1.4218122E0,-8.9636785E-1,3.556614E0,1.6181104E0,-5.1582646E-1,1.4114996E0,-8.5181034E-1,-1.4756347E0,2.3531312E-1,-7.496466E-1,-2.2853699E0],"categories":[],"categories_nodes":[],"categories_segments":[],"categories_sizes":[],"default_left":[0,0,0,0,0,0,0,0,0,0,0,0,0,0,0,0,0,0,0,0,0,0,0,0,0,0,0,0,0,0,0,0,0,0,0,0,0,0,0,0,0,0,0,0,0,0,0,0,0,0,0,0,0,0,0,0,0,0,0,0,0,0,0],"id":12,"left_children":[1,3,5,7,9,11,13,15,17,19,21,23,25,27,29,31,33,35,37,39,41,-1,-1,-1,-1,-1,-1,-1,-1,-1,43,45,47,49,51,53,-1,-1,55,57,59,-1,61,-1,-1,-1,-1,-1,-1,-1,-1,-1,-1,-1,-1,-1,-1,-1,-1,-1,-1,-1,-1],"loss_changes":[1.0687154E2,1.29348E2,1.683758E2,2.4118361E2,1.4388054E2,1.1728577E1,6.0550636E1,1.09900475E2,4.0769794E2,2.2280605E2,1.9986826E2,1.9480495E1,3.9424683E1,4.132057E0,3.6573593E1,2.7336203E2,1.5080588E2,1.5525006E2,4.4035236E2,1.0680679E2,4.176538E1,0E0,0E0,0E0,0E0,0E0,0E0,0E0,0E0,0E0,4.4327025E0,2.1234218E2,3.7923557E2,8.767528E1,7.313806E1,2.8915436E2,0E0,0E0,1.972552E2,2.9594196E2,4.1084137E2,0E0,1.3095306E1,0E0,0E0,0E0,0E0,0E0,0E0,0E0,0E0,0E0,0E0,0E0,0E0,0E0,0E0,0E0,0E0,0E0,0E0,0E0,0E0],"parents":[2147483647,0,0,1,1,2,2,3,3,4,4,5,5,6,6,7,7,8,8,9,9,10,10,11,11,12,12,13,13,14,14,15,15,16,16,17,17,18,18,19,19,20,20,30,30,31,31,32,32,33,33,34,34,35,35,38,38,39,39,40,40,42,42],"right_children":[2,4,6,8,10,12,14,16,18,20,22,24,26,28,30,32,34,36,38,40,42,-1,-1,-1,-1,-1,-1,-1,-1,-1,44,46,48,50,52,54,-1,-1,56,58,60,-1,62,-1,-1,-1,-1,-1,-1,-1,-1,-1,-1,-1,-1,-1,-1,-1,-1,-1,-1,-1,-1],"split_conditions":[3.1959505E1,2.420314E1,2E-1,2.3565569E1,1.5704583E1,2.4316669E0,1.1E0,2.3166216E1,6.1129165E0,1.4662918E1,3.083007E2,2.0545833E0,6.429583E0,2.5629163E0,4.3999996E0,2.2565422E1,1.565E0,1.7191668E0,6.537916E0,1E-1,2.5294964E1,2.0623796E0,-1.6027766E0,1.4708151E0,-7.826357E-2,3.6259596E0,5.6124777E-1,-1.0963552E0,-1.6978627E-1,1.3295429E0,1.0654584E1,2.2437273E1,7.0999994E0,1E-1,2.4599869E2,-4.6208358E-1,-1.5125662E0,5.04961E0,1.2E0,2.4490585E1,2.4490585E1,3.0883886E-2,1.49775E1,-5.046407E-1,1.579382E-1,1.2179316E-2,-1.3091983E0,5.417163E-1,4.140695E0,2.348089E0,-1.6666833E-1,1.6971703E-1,-1.4218122E0,-8.9636785E-1,3.556614E0,1.6181104E0,-5.1582646E-1,1.4114996E0,-8.5181034E-1,-1.4756347E0,2.3531312E-1,-7.496466E-1,-2.2853699E0],"split_indices":[2,2,1,2,0,0,1,2,0,0,3,0,0,0,1,2,0,0,0,1,2,0,0,0,0,0,0,0,0,0,0,2,1,1,3,0,0,0,1,2,2,0,0,0,0,0,0,0,0,0,0,0,0,0,0,0,0,0,0,0,0,0,0],"split_type":[0,0,0,0,0,0,0,0,0,0,0,0,0,0,0,0,0,0,0,0,0,0,0,0,0,0,0,0,0,0,0,0,0,0,0,0,0,0,0,0,0,0,0,0,0,0,0,0,0,0,0,0,0,0,0,0,0,0,0,0,0,0,0],"sum_hessian":[2.448E3,2.437E3,1.1E1,2.284E3,1.53E2,4E0,7E0,2.255E3,2.9E1,1.48E2,5E0,2E0,2E0,3E0,4E0,2.236E3,1.9E1,1E1,1.9E1,1.4E2,8E0,4E0,1E0,1E0,1E0,1E0,1E0,2E0,1E0,2E0,2E0,2.208E3,2.8E1,4E0,1.5E1,4E0,6E0,2E0,1.7E1,4.7E1,9.3E1,1E0,7E0,1E0,1E0,2.198E3,1E1,2.6E1,2E0,1E0,3E0,3E0,1.2E1,3E0,1E0,1.2E1,5E0,5E0,4.2E1,1.4E1,7.9E1,2E0,5E0],"tree_param":{"num_deleted":"0","num_feature":"4","num_nodes":"63","size_leaf_vector":"1"}},{"base_weights":[2.6786182E-2,-1.2622676E0,5.8583498E-2,-1.852565E0,3.3874521E0,2.59888E0,3.7139773E-2,1.7204796E0,-2.1087656E0,-3.4343907E-1,4.3336263E0,2.0652819E0,1.4376773E0,-9.791841E-1,7.997242E-2,-6.9226086E-1,-3.7325103E0,1.8356075E0,5.089979E-1,-9.494855E-1,2.262358E0,4.225228E0,-1.5003264E0,8.447853E-1,1.312721E-2,-1.3875564E0,5.71637E-1,-4.2296805E0,-9.9732745E-1,-1.9432941E-1,4.233785E-1,3.5560637E0,2.7582783E-1,2.2606776E0,2.220231E0,-1.7172042E0,8.831028E-1,2.5480893E0,-6.9162947E-1,-9.107902E-1,1.01503454E-1,-1.9757734E-1,-1.5167524E0,9.251582E-1,-3.913413E-1,-1.360728E0,2.378739E-1,1.2888283E0,-1.0184119E0,6.600528E-1,2.1604753E0,-3.8122043E-1,1.4332805E0,-1.1194831E0,1.6211745E0,-1.4646868E0,-4.5986307E-1,1.2262627E0,-5.571208E-1,2.0057173E0,4.988955E-1,-2.8179598E-1,1.5906004E0,-1.3791233E-1,-9.587961E-1,1.6061358E0,2.2159388E-2],"categories":[],"categories_nodes":[],"categories_segments":[],"categories_sizes":[],"default_left":[0,0,0,0,0,0,0,0,0,0,0,0,0,0,0,0,0,0,0,0,0,0,0,0,0,0,0,0,0,0,0,0,0,0,0,0,0,0,0,0,0,0,0,0,0,0,0,0,0,0,0,0,0,0,0,0,0,0,0,0,0,0,0,0,0,0,0],"id":13,"left_children":[1,3,5,7,9,11,13,-1,15,-1,17,-1,19,21,23,25,27,-1,29,-1,31,33,35,37,39,41,43,45,47,-1,-1,49,51,53,-1,55,57,59,61,63,65,-1,-1,-1,-1,-1,-1,-1,-1,-1,-1,-1,-1,-1,-1,-1,-1,-1,-1,-1,-1,-1,-1,-1,-1,-1,-1],"loss_changes":[1.00454666E2,1.6821385E2,1.3014943E2,1.15121445E2,3.4979195E1,8.962683E1,1.03335846E2,0E0,1.17018295E2,0E0,3.7848854E1,0E0,7.168713E1,2.667142E2,1.1639845E2,2.627787E1,2.841806E1,0E0,4.04528E0,0E0,3.756893E1,3.9415848E1,4.7004807E1,4.8066995E2,1.7115411E2,4.747727E1,5.5868034E1,3.4342712E1,7.803566E1,0E0,0E0,2.8641495E1,5.480698E1,1.5201155E2,0E0,3.977243E1,7.783656E1,3.0749646E2,1.4898303E2,1.8716939E2,2.773089E2,0E0,0E0,0E0,0E0,0E0,0E0,0E0,0E0,0E0,0E0,0E0,0E0,0E0,0E0,0E0,0E0,0E0,0E0,0E0,0E0,0E0,0E0,0E0,0E0,0E0,0E0],"parents":[2147483647,0,0,1,1,2,2,3,3,4,4,5,5,6,6,8,8,10,10,12,12,13,13,14,14,15,15,16,16,18,18,20,20,21,21,22,22,23,23,24,24,25,25,26,26,27,27,28,28,31,31,32,32,33,33,35,35,36,36,37,37,38,38,39,39,40,40],"right_children":[2,4,6,8,10,12,14,-1,16,-1,18,-1,20,22,24,26,28,-1,30,-1,32,34,36,38,40,42,44,46,48,-1,-1,50,52,54,-1,56,58,60,62,64,66,-1,-1,-1,-1,-1,-1,-1,-1,-1,-1,-1,-1,-1,-1,-1,-1,-1,-1,-1,-1,-1,-1,-1,-1,-1,-1],"split_conditions":[-1.1826665E1,3.1997308E2,-1.0857918E1,6.130579E0,-1.4028751E1,2.7131686E2,-7.455834E0,1.7204796E0,-1.4028751E1,-3.4343907E-1,3.2804443E2,2.0652819E0,2.795953E2,9.0645685E0,-3.3537502E0,1.1753877E1,1.337825E1,1.8356075E0,-1.2912082E1,-9.494855E-1,3.0896414E2,1E-1,3E0,1E-1,-9.933333E-1,1.1183201E1,2.958209E2,1.8E0,1.3441071E1,-1.9432941E-1,4.233785E-1,8.000001E-1,3.3657465E2,8.049845E0,2.220231E0,1.3139745E1,3.6999998E0,2.0271057E2,-3.5120833E0,-1.335E0,-8.558335E-1,-1.9757734E-1,-1.5167524E0,9.251582E-1,-3.913413E-1,-1.360728E0,2.378739E-1,1.2888283E0,-1.0184119E0,6.600528E-1,2.1604753E0,-3.8122043E-1,1.4332805E0,-1.1194831E0,1.6211745E0,-1.4646868E0,-4.5986307E-1,1.2262627E0,-5.571208E-1,2.0057173E0,4.988955E-1,-2.8179598E-1,1.5906004E0,-1.3791233E-1,-9.587961E-1,1.6061358E0,2.2159388E-2],"split_indices":[0,3,0,2,0,3,0,0,0,0,3,0,3,2,0,2,2,0,0,0,3,1,1,1,0,2,3,1,2,0,0,1,3,2,0,3,1,3,0,0,0,0,0,0,0,0,0,0,0,0,0,0,0,0,0,0,0,0,0,0,0,0,0,0,0,0,0],"split_type":[0,0,0,0,0,0,0,0,0,0,0,0,0,0,0,0,0,0,0,0,0,0,0,0,0,0,0,0,0,0,0,0,0,0,0,0,0,0,0,0,0,0,0,0,0,0,0,0,0,0,0,0,0,0,0,0,0,0,0,0,0,0,0,0,0,0,0],"sum_hessian":[2.448E3,5.8E1,2.39E3,5.2E1,6E0,1.9E1,2.371E3,1E0,5.1E1,1E0,5E0,3E0,1.6E1,9.5E1,2.276E3,2.8E1,2.3E1,3E0,2E0,2E0,1.4E1,8E0,8.7E1,1.82E2,2.094E3,1.8E1,1E1,1.9E1,4E0,1E0,1E0,8E0,6E0,6E0,2E0,8E1,7E0,8.6E1,9.6E1,1.82E2,1.912E3,1.6E1,2E0,4E0,6E0,1.8E1,1E0,1E0,3E0,7E0,1E0,5E0,1E0,2E0,4E0,3E0,7.7E1,3E0,4E0,1.4E1,7.2E1,9.3E1,3E0,1.53E2,2.9E1,9E0,1.903E3],"tree_param":{"num_deleted":"0","num_feature":"4","num_nodes":"67","size_leaf_vector":"1"}},{"base_weights":[2.373535E-2,-2.315791E0,4.395203E-2,1.0937088E0,-3.1823618E0,4.246117E-1,-5.394337E-2,1.6738862E0,-3.7567723E0,-5.177736E0,-2.9034936E-1,7.5287777E-3,1.2792016E0,-1.7337593E-1,3.8603455E-1,-1.3861225E0,-3.0442515E-1,-3.163581E0,-1.9677525E0,3.5560336E0,-3.3093858E0,3.6106834E-1,-1.6871527E0,3.0492647E0,2.9860872E-1,1.0233965E-1,-1.0759349E0,-3.7667733E-2,2.0968044E0,-3.853749E0,4.308901E-2,6.620407E-2,1.3782774E0,-3.878053E0,-1.5520763E-1,1.02547824E-1,6.626744E0,1.9313208E0,-3.1116028E0,1.0792428E0,6.468863E0,-9.392298E-1,2.4492347E0,-5.4653622E-2,1.3985909E0,-1.4283226E0,9.656079E-1,8.750212E-1,-8.7146014E-1,1.2307765E1,1.1287316E0,-3.1852695E-1,-1.6083478E0,-3.073062E-1,-1.3463504E0,1.0146526E-1,-5.3351176E-1,1.535162E-1,3.0143821E0,3.9011118E0,-4.110508E-1,-1.2511421E0,8.335598E-1,-2.762051E-1,1.3720354E0,5.8921194E0,1.2146043E0,1.19891874E-1,-1.1864333E0,-1.0412707E0,1.0892407E0,-6.452961E-1,2.4091246E-2,3.4348116E0,3.181097E-1,-7.3367965E-1,-2.5276061E-2,1.435197E0,-2.911217E-1,-1.4908005E-1,7.0275533E-1,-8.048024E-1,2.9117692E-1,-2.4806005E-1,5.3180976E0,2.7477086E0,5.4397304E-2],"categories":[],"categories_nodes":[],"categories_segments":[],"categories_sizes":[],"default_left":[0,0,0,0,0,0,0,0,0,0,0,0,0,0,0,0,0,0,0,0,0,0,0,0,0,0,0,0,0,0,0,0,0,0,0,0,0,0,0,0,0,0,0,0,0,0,0,0,0,0,0,0,0,0,0,0,0,0,0,0,0,0,0,0,0,0,0,0,0,0,0,0,0,0,0,0,0,0,0,0,0,0,0,0,0,0,0],"id":14,"left_children":[1,3,5,7,9,11,13,-1,15,17,19,21,23,25,27,-1,-1,29,-1,31,33,35,37,39,41,43,45,47,49,51,-1,-1,-1,53,-1,55,57,59,61,63,65,67,69,71,73,75,77,79,81,83,85,-1,-1,-1,-1,-1,-1,-1,-1,-1,-1,-1,-1,-1,-1,-1,-1,-1,-1,-1,-1,-1,-1,-1,-1,-1,-1,-1,-1,-1,-1,-1,-1,-1,-1,-1,-1],"loss_changes":[1.1593324E2,6.552662E1,9.053918E1,1.2975552E2,9.6597626E1,1.7713849E2,1.01641624E2,0E0,2.4157639E0,7.073822E0,1.0466725E2,2.0132007E2,2.820104E2,3.7861032E2,2.9944498E2,0E0,0E0,1.4248707E1,0E0,1.2837521E1,5.9323235E0,4.4962643E2,3.0496094E2,3.8374622E2,2.844859E2,2.373606E2,2.5749072E2,2.5341225E2,7.9667395E2,1.5351135E1,0E0,0E0,0E0,2.3634033E0,0E0,1.1939944E2,2.2498584E2,6.3925854E2,2.735372E2,2.6976077E2,5.8991003E2,2.7612534E2,2.8540875E2,2.9468875E2,4.161874E2,4.1544995E2,3.9644174E2,3.212849E2,5.831282E2,5.129147E2,5.765443E2,0E0,0E0,0E0,0E0,0E0,0E0,0E0,0E0,0E0,0E0,0E0,0E0,0E0,0E0,0E0,0E0,0E0,0E0,0E0,0E0,0E0,0E0,0E0,0E0,0E0,0E0,0E0,0E0,0E0,0E0,0E0,0E0,0E0,0E0,0E0,0E0],"parents":[2147483647,0,0,1,1,2,2,3,3,4,4,5,5,6,6,8,8,9,9,10,10,11,11,12,12,13,13,14,14,17,17,19,19,20,20,21,21,22,22,23,23,24,24,25,25,26,26,27,27,28,28,29,29,33,33,35,35,36,36,37,37,38,38,39,39,40,40,41,41,42,42,43,43,44,44,45,45,46,46,47,47,48,48,49,49,50,50],"right_children":[2,4,6,8,10,12,14,-1,16,18,20,22,24,26,28,-1,-1,30,-1,32,34,36,38,40,42,44,46,48,50,52,-1,-1,-1,54,-1,56,58,60,62,64,66,68,70,72,74,76,78,80,82,84,86,-1,-1,-1,-1,-1,-1,-1,-1,-1,-1,-1,-1,-1,-1,-1,-1,-1,-1,-1,-1,-1,-1,-1,-1,-1,-1,-1,-1,-1,-1,-1,-1,-1,-1,-1,-1],"split_conditions":[4.610546E0,-4.8787494E0,1.2735799E2,1E-1,1.09775E1,9.645885E1,1.40337515E1,1.6738862E0,-8.780834E0,3.879166E-1,9.236298E0,8.362478E1,1.07466545E2,8.44E0,1.879255E1,-1.3861225E0,-3.0442515E-1,-5.8083326E-1,-1.9677525E0,1.2608752E1,1.318308E1,8.159118E1,2.6275003E0,2.0000002E0,1.19996E2,6.1129165E0,4.7999988E0,1E-1,1.5586932E2,2.4539962E0,4.308901E-2,6.620407E-2,1.3782774E0,1.3519169E1,-1.5520763E-1,1.2000003E1,5E-1,6E-1,8.099999E0,1.0376091E2,1.0630672E1,1.5704583E1,1.1500003E-1,1.5920918E2,1.3909221E2,2.953715E2,1.8519435E2,1.3698934E1,1.6E0,1.5387917E1,1.8954777E1,-3.1852695E-1,-1.6083478E0,-3.073062E-1,-1.3463504E0,1.0146526E-1,-5.3351176E-1,1.535162E-1,3.0143821E0,3.9011118E0,-4.110508E-1,-1.2511421E0,8.335598E-1,-2.762051E-1,1.3720354E0,5.8921194E0,1.2146043E0,1.19891874E-1,-1.1864333E0,-1.0412707E0,1.0892407E0,-6.452961E-1,2.4091246E-2,3.4348116E0,3.181097E-1,-7.3367965E-1,-2.5276061E-2,1.435197E0,-2.911217E-1,-1.4908005E-1,7.0275533E-1,-8.048024E-1,2.9117692E-1,-2.4806005E-1,5.3180976E0,2.7477086E0,5.4397304E-2],"split_indices":[3,0,3,1,0,3,0,0,0,0,2,3,3,0,2,0,0,0,0,0,2,3,0,1,3,0,1,1,3,3,0,0,0,0,0,1,1,1,1,3,2,0,0,3,3,3,3,2,1,0,2,0,0,0,0,0,0,0,0,0,0,0,0,0,0,0,0,0,0,0,0,0,0,0,0,0,0,0,0,0,0,0,0,0,0,0,0],"split_type":[0,0,0,0,0,0,0,0,0,0,0,0,0,0,0,0,0,0,0,0,0,0,0,0,0,0,0,0,0,0,0,0,0,0,0,0,0,0,0,0,0,0,0,0,0,0,0,0,0,0,0,0,0,0,0,0,0,0,0,0,0,0,0,0,0,0,0,0,0,0,0,0,0,0,0,0,0,0,0,0,0,0,0,0,0,0,0],"sum_hessian":[2.448E3,2E1,2.428E3,4E0,1.6E1,4.96E2,1.932E3,2E0,2E0,9E0,7E0,3.34E2,1.62E2,1.52E3,4.12E2,1E0,1E0,5E0,4E0,3E0,4E0,2.77E2,5.7E1,5.7E1,1.05E2,1.165E3,3.55E2,3.31E2,8.1E1,4E0,1E0,1E0,2E0,3E0,1E0,2.67E2,1E1,1.6E1,4.1E1,3.7E1,2E1,6.7E1,3.8E1,1.04E3,1.25E2,3.03E2,5.2E1,1.58E2,1.73E2,6E0,7.5E1,2E0,2E0,1E0,2E0,2.38E2,2.9E1,4E0,6E0,3E0,1.3E1,3.5E1,6E0,2.4E1,1.3E1,2E0,1.8E1,4.7E1,2E1,6E0,3.2E1,6.2E1,9.78E2,3E0,1.22E2,1.72E2,1.31E2,1.7E1,3.5E1,8.2E1,7.6E1,8.7E1,8.6E1,2E0,4E0,7E0,6.8E1],"tree_param":{"num_deleted":"0","num_feature":"4","num_nodes":"87","size_leaf_vector":"1"}},{"base_weights":[2.4858149E-2,1.1647755E-2,2.7066982E0,4.761125E-2,-1.0916954E0,6.1691184E0,2.0434833E-1,1.6299991E-2,1.2695355E0,5.7491344E-1,-3.2163746E0,7.001364E0,4.2602035E-1,-7.8823876E-1,1.5861956E0,5.3971294E-2,-1.2232149E0,4.3006287E0,-9.318035E-1,-2.3932745E0,2.7218618E0,-4.5848393E0,-3.2545304E-1,2.5995407E0,3.0310254E0,2.5121472E0,-1.7713833E-1,-1.5430401E-1,2.9600146E-1,-2.133546E0,1.4240131E0,1.5546349E0,7.654199E0,3.021398E0,-2.2150261E0,1.4328355E0,-4.2693896E0,-8.4395224E-1,5.3930554E0,-1.5043792E0,-1.2898397E0,-5.36637E0,2.8658018E0,1.243255E0,-7.346163E-2,-3.7590265E-2,1.0299191E0,-3.8860032E-1,3.0888808E-1,-1.287881E-1,1.5432456E-1,3.7659425E-1,3.2599803E-2,1.596939E-1,-1.161188E0,2.2171605E0,-6.525377E-1,1.0084249E0,-1.2763104E0,5.76508E0,8.848465E-1,1.5077057E0,-7.9872155E-1,1.6083916E0,-8.1378835E-1,-8.09025E-1,1.0872059E0,-6.419663E-1,-2.1745846E0,-6.1551464E-1,1.8662164E0,2.2207754E0,-5.951387E-1,3.714685E-1,-7.635816E-1,-2.101424E0,1.7807037E-1,-1.2425684E0,1.3375802E0],"categories":[],"categories_nodes":[],"categories_segments":[],"categories_sizes":[],"default_left":[0,0,0,0,0,0,0,0,0,0,0,0,0,0,0,0,0,0,0,0,0,0,0,0,0,0,0,0,0,0,0,0,0,0,0,0,0,0,0,0,0,0,0,0,0,0,0,0,0,0,0,0,0,0,0,0,0,0,0,0,0,0,0,0,0,0,0,0,0,0,0,0,0,0,0,0,0,0,0],"id":15,"left_children":[1,3,5,7,9,11,13,15,17,19,21,23,-1,-1,25,27,29,31,33,35,37,39,41,43,-1,45,47,49,51,53,55,57,59,61,63,65,67,69,71,-1,73,75,77,-1,-1,-1,-1,-1,-1,-1,-1,-1,-1,-1,-1,-1,-1,-1,-1,-1,-1,-1,-1,-1,-1,-1,-1,-1,-1,-1,-1,-1,-1,-1,-1,-1,-1,-1,-1],"loss_changes":[8.673204E1,9.6792E1,1.02709595E2,9.0349396E1,2.7450684E2,9.819473E0,3.5472713E1,1.07649315E2,3.976827E2,2.869062E2,1.3301605E2,2.8354523E1,0E0,0E0,1.0241568E1,1.128104E2,1.669083E2,2.1832266E2,1.842418E2,1.4250357E2,2.5220096E2,2.6101196E1,2.0842117E2,1.4195597E1,0E0,1.0145641E1,5.381911E0,2.2144151E2,1.858668E2,2.3823178E2,4.0261343E2,1.7173466E2,5.417123E2,1.1590817E2,1.1633304E2,7.3113846E1,6.696423E1,1.1515258E2,2.370452E2,0E0,1.5846898E1,5.2980896E1,1.0776184E2,0E0,0E0,0E0,0E0,0E0,0E0,0E0,0E0,0E0,0E0,0E0,0E0,0E0,0E0,0E0,0E0,0E0,0E0,0E0,0E0,0E0,0E0,0E0,0E0,0E0,0E0,0E0,0E0,0E0,0E0,0E0,0E0,0E0,0E0,0E0,0E0],"parents":[2147483647,0,0,1,1,2,2,3,3,4,4,5,5,6,6,7,7,8,8,9,9,10,10,11,11,14,14,15,15,16,16,17,17,18,18,19,19,20,20,21,21,22,22,23,23,25,25,26,26,27,27,28,28,29,29,30,30,31,31,32,32,33,33,34,34,35,35,36,36,37,37,38,38,40,40,41,41,42,42],"right_children":[2,4,6,8,10,12,14,16,18,20,22,24,-1,-1,26,28,30,32,34,36,38,40,42,44,-1,46,48,50,52,54,56,58,60,62,64,66,68,70,72,-1,74,76,78,-1,-1,-1,-1,-1,-1,-1,-1,-1,-1,-1,-1,-1,-1,-1,-1,-1,-1,-1,-1,-1,-1,-1,-1,-1,-1,-1,-1,-1,-1,-1,-1,-1,-1,-1,-1],"split_conditions":[3.1959505E1,2.6302181E1,2E-1,3.4632867E2,3.0230542E2,6.429583E0,2.5629163E0,3.3227448E2,5E-1,2.8145618E2,2.9070974E1,2.4316669E0,4.2602035E-1,-7.8823876E-1,4.3999996E0,3E-1,1.4410832E1,1.2397806E1,3.501751E2,1.5030411E2,1E-1,1.3867084E1,1E-1,2.0545833E0,3.0310254E0,5E-1,1.0654584E1,1.2798333E1,1.0464797E1,2E-1,1.6150417E1,1.1525623E1,-1.6037501E0,8.6E0,8.209263E0,4.1937653E1,1.0000001E0,3.0146652E2,7.7670836E0,-1.5043792E0,1.4410832E1,3.159804E2,3.0352118E2,1.243255E0,-7.346163E-2,-3.7590265E-2,1.0299191E0,-3.8860032E-1,3.0888808E-1,-1.287881E-1,1.5432456E-1,3.7659425E-1,3.2599803E-2,1.596939E-1,-1.161188E0,2.2171605E0,-6.525377E-1,1.0084249E0,-1.2763104E0,5.76508E0,8.848465E-1,1.5077057E0,-7.9872155E-1,1.6083916E0,-8.1378835E-1,-8.09025E-1,1.0872059E0,-6.419663E-1,-2.1745846E0,-6.1551464E-1,1.8662164E0,2.2207754E0,-5.951387E-1,3.714685E-1,-7.635816E-1,-2.101424E0,1.7807037E-1,-1.2425684E0,1.3375802E0],"split_indices":[2,2,1,3,3,0,0,3,1,3,2,0,0,0,1,1,0,2,3,3,1,0,1,0,0,1,0,0,2,1,0,2,0,1,2,3,1,3,0,0,0,3,3,0,0,0,0,0,0,0,0,0,0,0,0,0,0,0,0,0,0,0,0,0,0,0,0,0,0,0,0,0,0,0,0,0,0,0,0],"split_type":[0,0,0,0,0,0,0,0,0,0,0,0,0,0,0,0,0,0,0,0,0,0,0,0,0,0,0,0,0,0,0,0,0,0,0,0,0,0,0,0,0,0,0,0,0,0,0,0,0,0,0,0,0,0,0,0,0,0,0,0,0,0,0,0,0,0,0,0,0,0,0,0,0,0,0,0,0,0,0],"sum_hessian":[2.448E3,2.437E3,1.1E1,2.361E3,7.6E1,4E0,7E0,2.303E3,5.8E1,4.3E1,3.3E1,3E0,1E0,2E0,5E0,2.236E3,6.7E1,2.4E1,3.4E1,1.8E1,2.5E1,2.2E1,1.1E1,2E0,1E0,3E0,2E0,1.202E3,1.034E3,5E1,1.7E1,1.4E1,1E1,8E0,2.6E1,6E0,1.2E1,1.1E1,1.4E1,1.9E1,3E0,4E0,7E0,1E0,1E0,1E0,2E0,1E0,1E0,8.52E2,3.5E2,1.68E2,8.66E2,2E1,3E1,6E0,1.1E1,1.1E1,3E0,2E0,8E0,6E0,2E0,1E0,2.5E1,2E0,4E0,8E0,4E0,1E1,1E0,1.1E1,3E0,1E0,2E0,3E0,1E0,1E0,6E0],"tree_param":{"num_deleted":"0","num_feature":"4","num_nodes":"79","size_leaf_vector":"1"}},{"base_weights":[2.1584952E-2,-1.9058257E0,3.8239557E-2,8.0073965E-1,-2.589767E0,1.8683653E-2,1.5503807E0,1.3648666E0,-3.2149894E0,-4.008753E0,-4.9231374E-1,1.0340766E-1,-3.9017558E-1,5.6317153E0,-1.3237103E0,-1.183094E0,-2.6365128E-1,-2.5018413E0,-1.5045888E0,2.5678983E0,-2.8420205E0,6.7418E-2,1.9002392E0,-1.7706656E0,-2.0326847E-1,2.177399E0,8.281501E0,2.39832E0,-2.171486E0,-3.0445237E0,3.1735614E-2,-2.1572114E-4,1.0273032E0,-9.9734956E-1,-1.3681641E-1,1.0149262E-1,-3.2258577E0,6.3708816E0,3.466838E-1,-2.3235648E0,2.5790381E0,1.9843599E-2,-1.8692875E0,-9.0633696E-1,1.9773479E0,2.049943E-1,9.433979E0,-4.672551E-2,3.3015945E0,-4.658928E0,2.8084967E-1,-2.4520265E-1,-1.2770593E0,7.1552835E-2,-1.1150109E-1,1.7299997E0,-1.2007973E0,-8.134606E-1,2.6941285E0,-1.9994597E-1,8.3544064E-1,-2.5458068E-1,-1.3220766E0,1.8487891E0,-9.1762906E-1,-7.766542E-2,1.1497356E0,-3.2462925E-1,-2.7821598E0,-9.64981E-1,1.2502093E0,3.1818616E0,5.35928E-1,1.3367426E0,1.489749E-1,-5.1316196E-1,-1.6069903E0,-9.685928E-1,5.23439E-1],"categories":[],"categories_nodes":[],"categories_segments":[],"categories_sizes":[],"default_left":[0,0,0,0,0,0,0,0,0,0,0,0,0,0,0,0,0,0,0,0,0,0,0,0,0,0,0,0,0,0,0,0,0,0,0,0,0,0,0,0,0,0,0,0,0,0,0,0,0,0,0,0,0,0,0,0,0,0,0,0,0,0,0,0,0,0,0,0,0,0,0,0,0,0,0,0,0,0,0],"id":16,"left_children":[1,3,5,7,9,11,13,-1,15,17,19,21,23,25,27,-1,-1,29,-1,31,33,35,37,39,41,43,45,47,49,51,-1,-1,-1,-1,-1,53,55,57,59,61,63,65,67,69,-1,-1,71,-1,73,75,77,-1,-1,-1,-1,-1,-1,-1,-1,-1,-1,-1,-1,-1,-1,-1,-1,-1,-1,-1,-1,-1,-1,-1,-1,-1,-1,-1,-1],"loss_changes":[7.868643E1,4.0947487E1,7.179969E1,8.989792E1,4.8622795E1,8.3142166E1,3.7108868E2,0E0,1.6409378E0,2.6202393E0,6.482283E1,1.2843059E2,1.0594574E2,1.0095938E2,6.516141E1,0E0,0E0,8.812744E0,0E0,8.801985E0,4.239723E0,2.191508E2,2.6866153E2,1.2383496E2,1.3533914E2,1.01249916E2,5.485089E1,9.742336E0,9.890914E1,1.0021198E1,0E0,0E0,0E0,0E0,0E0,1.2527784E2,1.627897E2,2.613606E2,7.596291E1,1.3146672E2,1.400715E2,3.4317572E2,2.4060362E2,7.2012764E1,0E0,0E0,3.48407E1,0E0,7.5000763E0,7.2941437E0,5.1872715E1,0E0,0E0,0E0,0E0,0E0,0E0,0E0,0E0,0E0,0E0,0E0,0E0,0E0,0E0,0E0,0E0,0E0,0E0,0E0,0E0,0E0,0E0,0E0,0E0,0E0,0E0,0E0,0E0],"parents":[2147483647,0,0,1,1,2,2,3,3,4,4,5,5,6,6,8,8,9,9,10,10,11,11,12,12,13,13,14,14,17,17,19,19,20,20,21,21,22,22,23,23,24,24,25,25,26,26,27,27,28,28,29,29,35,35,36,36,37,37,38,38,39,39,40,40,41,41,42,42,43,43,46,46,48,48,49,49,50,50],"right_children":[2,4,6,8,10,12,14,-1,16,18,20,22,24,26,28,-1,-1,30,-1,32,34,36,38,40,42,44,46,48,50,52,-1,-1,-1,-1,-1,54,56,58,60,62,64,66,68,70,-1,-1,72,-1,74,76,78,-1,-1,-1,-1,-1,-1,-1,-1,-1,-1,-1,-1,-1,-1,-1,-1,-1,-1,-1,-1,-1,-1,-1,-1,-1,-1,-1,-1],"split_conditions":[4.610546E0,-4.8787494E0,3.53698E2,1E-1,1.09775E1,3.0896414E2,8E-1,1.3648666E0,-8.780834E0,3.879166E-1,9.236298E0,3.068605E2,3.114676E2,1E-1,-9.549583E0,-1.183094E0,-2.6365128E-1,-5.8083326E-1,-1.5045888E0,1.2608752E1,1.318308E1,3.0594034E2,3.0715964E2,2.3688984E1,1.6150417E1,1.2287555E1,-1.1826665E1,-1.2912082E1,-1.2183334E0,2.4539962E0,3.1735614E-2,-2.1572114E-4,1.0273032E0,-9.9734956E-1,-1.3681641E-1,2.5E0,9.957108E0,-4.0037503E0,1.3050418E1,1.5844089E1,9.0000004E-1,1.4410832E1,2.7E0,1.6656666E1,1.9773479E0,2.049943E-1,2.9566662E0,-4.672551E-2,-1.0857918E1,-4.726667E0,3.554413E2,-2.4520265E-1,-1.2770593E0,7.1552835E-2,-1.1150109E-1,1.7299997E0,-1.2007973E0,-8.134606E-1,2.6941285E0,-1.9994597E-1,8.3544064E-1,-2.5458068E-1,-1.3220766E0,1.8487891E0,-9.1762906E-1,-7.766542E-2,1.1497356E0,-3.2462925E-1,-2.7821598E0,-9.64981E-1,1.2502093E0,3.1818616E0,5.35928E-1,1.3367426E0,1.489749E-1,-5.1316196E-1,-1.6069903E0,-9.685928E-1,5.23439E-1],"split_indices":[3,0,3,1,0,3,1,0,0,0,2,3,3,1,0,0,0,0,0,0,2,3,3,2,0,2,0,0,0,3,0,0,0,0,0,1,2,0,0,2,1,0,1,0,0,0,0,0,0,0,3,0,0,0,0,0,0,0,0,0,0,0,0,0,0,0,0,0,0,0,0,0,0,0,0,0,0,0,0],"split_type":[0,0,0,0,0,0,0,0,0,0,0,0,0,0,0,0,0,0,0,0,0,0,0,0,0,0,0,0,0,0,0,0,0,0,0,0,0,0,0,0,0,0,0,0,0,0,0,0,0,0,0,0,0,0,0,0,0,0,0,0,0,0,0,0,0,0,0,0,0,0,0,0,0,0,0,0,0,0,0],"sum_hessian":[2.448E3,2E1,2.428E3,4E0,1.6E1,2.398E3,3E1,2E0,2E0,9E0,7E0,1.987E3,4.11E2,1.2E1,1.8E1,1E0,1E0,5E0,4E0,3E0,4E0,1.949E3,3.8E1,4.8E1,3.63E2,6E0,6E0,3E0,1.5E1,4E0,1E0,1E0,2E0,3E0,1E0,1.93E3,1.9E1,9E0,2.9E1,4.3E1,5E0,3.21E2,4.2E1,4E0,2E0,1E0,5E0,1E0,2E0,7E0,8E0,2E0,2E0,1.497E3,4.33E2,1E0,1.8E1,2E0,7E0,2.1E1,8E0,2.6E1,1.7E1,3E0,2E0,3E2,2.1E1,3.9E1,3E0,3E0,1E0,4E0,1E0,1E0,1E0,2E0,5E0,2E0,6E0],"tree_param":{"num_deleted":"0","num_feature":"4","num_nodes":"79","size_leaf_vector":"1"}},{"base_weights":[1.6008152E-2,1.6221148E-1,-1.6582347E-1,1.2208818E-1,5.5586243E0,-2.4549234E0,-8.09651E-2,1.51045E-1,-3.4138455E0,8.749054E0,-1.4142847E0,-3.3379445E0,6.105998E0,3.115335E-1,-3.7618256E-1,6.3133776E-2,2.091582E0,3.3948555E0,-2.3368535E0,1.1811493E1,2.1859169E-1,1.9067174E-1,-6.928284E-1,-4.1896467E0,-3.1732094E-1,2.208143E0,3.5138455E-1,-9.1468203E-1,9.03587E-1,-1.2722261E0,3.514689E-1,2.8874415E-1,-5.9125966E-1,-1.5754459E0,5.812936E0,5.5583444E0,-7.8886503E-1,4.137708E0,5.832038E-1,-5.039119E0,-2.637091E0,5.818476E0,-2.9016168E0,-4.9692845E0,9.049917E-1,7.1878233E0,4.3899766E-1,-1.5840688E0,2.9307518E0,1.5675671E0,-4.1549763E-1,5.8789145E-2,1.8251185E0,-3.9750507E-1,1.3793132E-1,-6.6587216E-1,2.5656388E0,3.297182E0,1.0997766E0,2.390246E0,-2.5036213E-1,-1.0809284E0,-2.1213944E0,-1.087863E-1,-1.2629728E0,2.396636E0,2.2167836E-1,-1.3114277E0,1.5458107E-1,-4.381981E-1,-1.9859664E0,-1.4479845E0,5.359559E-1,2.567243E0,-1.1647767E0,4.190023E-1,-1.6672578E-1,-2.4779075E-1,-1.1988665E0,-1.3340029E-1,2.0191877E0,9.844977E-1,-1.013064E-1,2.4751575E0,-1.6245604E-1],"categories":[],"categories_nodes":[],"categories_segments":[],"categories_sizes":[],"default_left":[0,0,0,0,0,0,0,0,0,0,0,0,0,0,0,0,0,0,0,0,0,0,0,0,0,0,0,0,0,0,0,0,0,0,0,0,0,0,0,0,0,0,0,0,0,0,0,0,0,0,0,0,0,0,0,0,0,0,0,0,0,0,0,0,0,0,0,0,0,0,0,0,0,0,0,0,0,0,0,0,0,0,0,0,0],"id":17,"left_children":[1,3,5,7,9,11,13,15,17,19,21,23,25,27,29,31,33,35,-1,37,-1,-1,-1,39,41,-1,-1,43,45,47,49,51,53,55,57,59,-1,-1,-1,61,63,65,67,69,71,73,75,77,79,81,83,-1,-1,-1,-1,-1,-1,-1,-1,-1,-1,-1,-1,-1,-1,-1,-1,-1,-1,-1,-1,-1,-1,-1,-1,-1,-1,-1,-1,-1,-1,-1,-1,-1,-1],"loss_changes":[6.5132065E1,2.933581E2,2.1192143E2,1.3863895E2,2.3483945E2,3.15201E2,1.2224674E2,2.2829465E2,3.5416284E2,1.6332788E2,8.807472E0,9.128674E1,1.6140793E1,3.2969778E2,3.9295557E2,1.8944257E2,8.006438E2,7.9784615E1,0E0,7.0918274E1,0E0,0E0,0E0,2.3639221E1,1.5959343E2,0E0,0E0,1.096449E3,8.9023895E2,3.5852286E2,3.1124258E2,5.1173602E2,2.5433447E2,2.1468561E2,2.8208868E2,6.8254654E1,0E0,0E0,0E0,2.4132172E1,4.1401337E1,2.7169456E1,3.7407654E1,2.5673267E2,5.290376E2,3.5164038E2,2.732338E2,4.5751947E2,2.4669003E2,4.223941E2,2.283512E2,0E0,0E0,0E0,0E0,0E0,0E0,0E0,0E0,0E0,0E0,0E0,0E0,0E0,0E0,0E0,0E0,0E0,0E0,0E0,0E0,0E0,0E0,0E0,0E0,0E0,0E0,0E0,0E0,0E0,0E0,0E0,0E0,0E0,0E0],"parents":[2147483647,0,0,1,1,2,2,3,3,4,4,5,5,6,6,7,7,8,8,9,9,10,10,11,11,12,12,13,13,14,14,15,15,16,16,17,17,19,19,23,23,24,24,27,27,28,28,29,29,30,30,31,31,32,32,33,33,34,34,35,35,39,39,40,40,41,41,42,42,43,43,44,44,45,45,46,46,47,47,48,48,49,49,50,50],"right_children":[2,4,6,8,10,12,14,16,18,20,22,24,26,28,30,32,34,36,-1,38,-1,-1,-1,40,42,-1,-1,44,46,48,50,52,54,56,58,60,-1,-1,-1,62,64,66,68,70,72,74,76,78,80,82,84,-1,-1,-1,-1,-1,-1,-1,-1,-1,-1,-1,-1,-1,-1,-1,-1,-1,-1,-1,-1,-1,-1,-1,-1,-1,-1,-1,-1,-1,-1,-1,-1,-1,-1],"split_conditions":[7.387918E0,7.2275004E0,8.0025E0,6.95875E0,1.0000001E0,2.472495E1,1E-1,6.1129165E0,1.3905509E1,2.4210284E2,7.3522797E0,1.8359999E1,7.9025E0,1.2798333E1,1.5000001E0,1.5E0,4E-1,1.5416629E2,-2.3368535E0,2.0696087E1,2.1859169E-1,1.9067174E-1,-6.928284E-1,2.6271008E2,7.6712494E0,2.208143E0,3.5138455E-1,2.0775848E2,1.3442084E1,2.0277502E1,3.8999999E0,1.4E0,4.7999988E0,2.5570139E1,9.000001E-1,1E-1,-7.8886503E-1,4.137708E0,5.832038E-1,1.8133212E2,2.875398E2,2.138897E1,5E-1,1.1435313E1,1.0853866E1,3.3227448E2,2.1936928E2,1.6317083E1,1.3084402E1,1.59134655E1,8.089999E0,5.8789145E-2,1.8251185E0,-3.9750507E-1,1.3793132E-1,-6.6587216E-1,2.5656388E0,3.297182E0,1.0997766E0,2.390246E0,-2.5036213E-1,-1.0809284E0,-2.1213944E0,-1.087863E-1,-1.2629728E0,2.396636E0,2.2167836E-1,-1.3114277E0,1.5458107E-1,-4.381981E-1,-1.9859664E0,-1.4479845E0,5.359559E-1,2.567243E0,-1.1647767E0,4.190023E-1,-1.6672578E-1,-2.4779075E-1,-1.1988665E0,-1.3340029E-1,2.0191877E0,9.844977E-1,-1.013064E-1,2.4751575E0,-1.6245604E-1],"split_indices":[0,0,0,0,1,2,1,0,2,3,3,2,0,0,1,1,1,3,0,2,0,0,0,3,0,0,0,3,0,0,1,1,1,2,1,1,0,0,0,3,3,2,1,2,2,3,3,0,2,2,0,0,0,0,0,0,0,0,0,0,0,0,0,0,0,0,0,0,0,0,0,0,0,0,0,0,0,0,0,0,0,0,0,0,0],"split_type":[0,0,0,0,0,0,0,0,0,0,0,0,0,0,0,0,0,0,0,0,0,0,0,0,0,0,0,0,0,0,0,0,0,0,0,0,0,0,0,0,0,0,0,0,0,0,0,0,0,0,0,0,0,0,0,0,0,0,0,0,0,0,0,0,0,0,0,0,0,0,0,0,0,0,0,0,0,0,0,0,0,0,0,0,0],"sum_hessian":[2.448E3,1.357E3,1.091E3,1.348E3,9E0,3.8E1,1.053E3,1.338E3,1E1,6E0,3E0,3.5E1,3E0,4.52E2,6.01E2,1.281E3,5.7E1,4E0,6E0,4E0,2E0,1E0,2E0,2.7E1,8E0,2E0,1E0,1.47E2,3.05E2,2.69E2,3.32E2,9.53E2,3.28E2,2.9E1,2.8E1,3E0,1E0,3E0,1E0,1.6E1,1.1E1,2E0,6E0,4.5E1,1.02E2,2E1,2.85E2,2.51E2,1.8E1,1.28E2,2.04E2,9.39E2,1.4E1,1.93E2,1.35E2,2.8E1,1E0,7E0,2.1E1,2E0,1E0,1.1E1,5E0,5E0,6E0,1E0,1E0,4E0,2E0,1.5E1,3E1,1.3E1,8.9E1,1.8E1,2E0,1.45E2,1.4E2,1.92E2,5.9E1,1E1,8E0,6.7E1,6.1E1,2E0,2.02E2],"tree_param":{"num_deleted":"0","num_feature":"4","num_nodes":"85","size_leaf_vector":"1"}},{"base_weights":[1.642154E-2,-1.7596897E0,3.1770207E-2,4.8128206E-1,-2.3152878E0,-1.2839241E-1,2.1357894E-1,1.0801355E0,-2.7983143E0,-4.044703E-1,-3.077756E0,-1.8447202E-1,2.0167198E0,7.138893E-1,-1.3237072E-2,-1.0144483E0,-2.4479328E-1,-1.0069774E0,1.910738E0,-9.592714E-1,-2.639686E-1,-2.0340918E-1,4.6094327E0,-1.7457614E0,2.4434426E0,2.7976646E0,1.9226849E-1,-1.4632341E-1,2.9267945E0,3.6985304E-2,7.396383E-1,-8.7094617E-1,-8.728845E-2,5.263996E0,2.986768E-1,3.572445E0,-8.387244E-1,8.220268E-1,1.0118577E1,1.0364052E0,-1.101784E0,-3.561331E-1,1.1197848E0,4.955003E0,6.0711545E-1,2.65824E0,-3.2367083E-1,2.2615757E0,-4.1198883E-2,6.517365E-1,2.180793E0,3.8525465E-1,2.6838603E0,7.360178E-1,-1.1889291E0,-2.932429E-1,1.3417438E0,5.2985725E0,-3.0765057E-1,1.5700864E0,-5.5140264E-2,-9.299442E-1,3.1847697E-1,-1.2658502E0,-6.387995E-2,9.120628E-1,-1.4823702E-1,2.7508562E0,4.3183342E-1,-1.9758136E0,7.856817E-1],"categories":[],"categories_nodes":[],"categories_segments":[],"categories_sizes":[],"default_left":[0,0,0,0,0,0,0,0,0,0,0,0,0,0,0,0,0,0,0,0,0,0,0,0,0,0,0,0,0,0,0,0,0,0,0,0,0,0,0,0,0,0,0,0,0,0,0,0,0,0,0,0,0,0,0,0,0,0,0,0,0,0,0,0,0,0,0,0,0,0,0],"id":18,"left_children":[1,3,5,7,9,11,13,-1,15,17,19,21,23,25,27,-1,-1,-1,29,-1,-1,31,33,-1,35,37,39,41,43,-1,-1,45,47,49,-1,51,53,55,57,59,61,63,65,67,69,-1,-1,-1,-1,-1,-1,-1,-1,-1,-1,-1,-1,-1,-1,-1,-1,-1,-1,-1,-1,-1,-1,-1,-1,-1,-1],"loss_changes":[6.681795E1,2.7260979E1,7.075739E1,6.1223274E1,2.3523079E1,1.5579582E2,1.2914787E2,0E0,7.0895004E-1,4.7422215E1,3.4651184E-1,1.15324005E2,1.2456322E2,3.85326E2,3.0719025E2,0E0,0E0,0E0,3.6622133E0,0E0,0E0,9.7282684E1,6.58667E0,0E0,1.2157468E2,1.01858875E3,3.1246368E2,1.9989578E2,1.5695471E2,0E0,0E0,3.8598297E2,4.0973697E2,9.005798E0,0E0,2.83629E2,1.02295235E2,3.7880478E2,1.2790646E3,8.86976E2,4.9173163E2,3.559375E2,3.3313684E2,2.5349582E2,2.6326172E2,0E0,0E0,0E0,0E0,0E0,0E0,0E0,0E0,0E0,0E0,0E0,0E0,0E0,0E0,0E0,0E0,0E0,0E0,0E0,0E0,0E0,0E0,0E0,0E0,0E0,0E0],"parents":[2147483647,0,0,1,1,2,2,3,3,4,4,5,5,6,6,8,8,9,9,10,10,11,11,12,12,13,13,14,14,18,18,21,21,22,22,24,24,25,25,26,26,27,27,28,28,31,31,32,32,33,33,35,35,36,36,37,37,38,38,39,39,40,40,41,41,42,42,43,43,44,44],"right_children":[2,4,6,8,10,12,14,-1,16,18,20,22,24,26,28,-1,-1,-1,30,-1,-1,32,34,-1,36,38,40,42,44,-1,-1,46,48,50,-1,52,54,56,58,60,62,64,66,68,70,-1,-1,-1,-1,-1,-1,-1,-1,-1,-1,-1,-1,-1,-1,-1,-1,-1,-1,-1,-1,-1,-1,-1,-1,-1,-1],"split_conditions":[4.610546E0,-4.8787494E0,3E-1,1E-1,9.236298E0,3.3757578E2,1.1E0,1.0801355E0,-8.780834E0,2.9566662E0,1.5111424E1,3.1959505E1,6.130579E0,1.0853866E1,1.8667082E1,-1.0144483E0,-2.4479328E-1,-1.0069774E0,1.2608752E1,-9.592714E-1,-2.639686E-1,1.0464797E1,6.429583E0,-1.7457614E0,1.5496736E1,9E-1,7.387918E0,2.138897E1,1.44E1,3.6985304E-2,7.396383E-1,2.00237E1,1.0495713E1,2.4316669E0,2.986768E-1,1.2397806E1,8.44E0,4.410833E0,6.7045836E0,2.211858E2,1.5696165E1,1.2E0,2.3950148E1,1.5362418E2,6.664103E1,2.65824E0,-3.2367083E-1,2.2615757E0,-4.1198883E-2,6.517365E-1,2.180793E0,3.8525465E-1,2.6838603E0,7.360178E-1,-1.1889291E0,-2.932429E-1,1.3417438E0,5.2985725E0,-3.0765057E-1,1.5700864E0,-5.5140264E-2,-9.299442E-1,3.1847697E-1,-1.2658502E0,-6.387995E-2,9.120628E-1,-1.4823702E-1,2.7508562E0,4.3183342E-1,-1.9758136E0,7.856817E-1],"split_indices":[3,0,1,1,2,3,1,0,0,0,2,2,2,2,0,0,0,0,0,0,0,2,0,0,2,1,0,2,2,0,0,3,2,0,0,2,0,0,0,3,2,1,2,3,3,0,0,0,0,0,0,0,0,0,0,0,0,0,0,0,0,0,0,0,0,0,0,0,0,0,0],"split_type":[0,0,0,0,0,0,0,0,0,0,0,0,0,0,0,0,0,0,0,0,0,0,0,0,0,0,0,0,0,0,0,0,0,0,0,0,0,0,0,0,0,0,0,0,0,0,0,0,0,0,0,0,0,0,0,0,0,0,0,0,0,0,0,0,0,0,0,0,0,0,0],"sum_hessian":[2.448E3,2E1,2.428E3,4E0,1.6E1,1.291E3,1.137E3,2E0,2E0,5E0,1.1E1,1.259E3,3.2E1,3.54E2,7.83E2,1E0,1E0,2E0,3E0,1E1,1E0,1.255E3,4E0,1E0,3.1E1,7E1,2.84E2,7.5E2,3.3E1,1E0,2E0,1.85E2,1.07E3,3E0,1E0,2.3E1,8E0,5.6E1,1.4E1,1.72E2,1.12E2,6.44E2,1.06E2,1.7E1,1.6E1,3E0,1.82E2,6E0,1.064E3,2E0,1E0,1.7E1,6E0,4E0,4E0,3.8E1,1.8E1,8E0,6E0,3.8E1,1.34E2,5.8E1,5.4E1,2.2E1,6.22E2,4.8E1,5.8E1,7E0,1E1,3E0,1.3E1],"tree_param":{"num_deleted":"0","num_feature":"4","num_nodes":"71","size_leaf_vector":"1"}},{"base_weights":[1.7739622E-2,5.5776313E-3,1.3591748E0,1.5094037E-2,-2.2969987E0,2.0287802E0,-1.3232399E0,4.6137914E-1,-2.3154302E-2,-4.34968E0,1.8694429E0,7.79382E-1,2.752999E0,-6.726608E-1,3.680293E-2,-4.6933195E-1,2.5516028E0,-1.9846398E0,3.4813482E-2,1.3300005E0,-6.8875523E0,-4.3803808E-1,1.0398026E0,3.3228292E0,-1.4112523E0,3.3956819E0,7.7938366E-1,-7.9422E-2,9.598332E-2,-1.8208567E0,1.0162315E0,5.68456E0,8.076488E-2,1.285547E0,-2.6140363E0,-1.204488E0,7.6166034E-2,9.0692717E-1,-3.0842686E-1,-5.781498E-2,-2.5539248E0,1.4046724E0,-1.1331082E-1,-1.1127949E-1,-9.916715E-1,1.1448967E0,4.267521E-1,7.0966534E-2,2.6444244E-1,-6.771896E-2,-1.305865E0,-1.9503836E-1,1.6984403E0,-1.7370915E-1,2.710392E0,2.8350684E-1,-1.9912275E0,-2.9445744E-1,2.2974741E0,-3.2984793E-1,-1.603835E0,-2.5273412E-1,-2.0902655E0,1.9830558E-1,-1.169388E-2,-2.8803828E-1,3.652897E-1],"categories":[],"categories_nodes":[],"categories_segments":[],"categories_sizes":[],"default_left":[0,0,0,0,0,0,0,0,0,0,0,0,0,0,0,0,0,0,0,0,0,0,0,0,0,0,0,0,0,0,0,0,0,0,0,0,0,0,0,0,0,0,0,0,0,0,0,0,0,0,0,0,0,0,0,0,0,0,0,0,0,0,0,0,0,0,0],"id":19,"left_children":[1,3,5,7,9,11,13,15,17,19,21,23,25,-1,27,29,31,33,35,37,39,-1,-1,41,43,45,47,-1,-1,49,51,53,55,57,59,61,63,-1,-1,-1,-1,-1,-1,65,-1,-1,-1,-1,-1,-1,-1,-1,-1,-1,-1,-1,-1,-1,-1,-1,-1,-1,-1,-1,-1,-1,-1],"loss_changes":[3.9946682E1,5.323762E1,4.2200077E1,4.13022E1,9.365523E1,1.4141441E1,6.331663E0,3.7276788E2,2.53513E2,1.1006056E2,2.6324322E1,4.926345E1,1.1305954E1,0E0,3.4083998E-1,2.6888458E2,4.5626166E2,1.3508812E2,1.110955E2,1.50853815E1,5.2772675E1,0E0,0E0,2.1890675E1,1.1944975E1,1.211235E0,1.3154507E-2,0E0,0E0,2.817407E2,4.9908118E2,5.50803E2,2.0368495E2,1.6643779E2,2.1756607E2,1.4018275E2,1.4124448E2,0E0,0E0,0E0,0E0,0E0,0E0,5.6812587E0,0E0,0E0,0E0,0E0,0E0,0E0,0E0,0E0,0E0,0E0,0E0,0E0,0E0,0E0,0E0,0E0,0E0,0E0,0E0,0E0,0E0,0E0,0E0],"parents":[2147483647,0,0,1,1,2,2,3,3,4,4,5,5,6,6,7,7,8,8,9,9,10,10,11,11,12,12,14,14,15,15,16,16,17,17,18,18,19,19,20,20,23,23,24,24,25,25,26,26,29,29,30,30,31,31,32,32,33,33,34,34,35,35,36,36,43,43],"right_children":[2,4,6,8,10,12,14,16,18,20,22,24,26,-1,28,30,32,34,36,38,40,-1,-1,42,44,46,48,-1,-1,50,52,54,56,58,60,62,64,-1,-1,-1,-1,-1,-1,66,-1,-1,-1,-1,-1,-1,-1,-1,-1,-1,-1,-1,-1,-1,-1,-1,-1,-1,-1,-1,-1,-1,-1],"split_conditions":[2.2600416E1,2.2031664E1,1.4654254E1,9.236298E0,1E-1,1.1983188E1,1.678156E1,8.707238E0,9.726664E0,6.1803158E1,8.557102E0,1.0041354E1,1.3281023E1,-6.726608E-1,2.3158752E1,2.0461972E2,1.7191668E0,-6.414167E0,2.7055735E1,1.0853866E1,9.726664E0,-4.3803808E-1,1.0398026E0,3E-1,1.1799271E1,2.3158752E1,1.3479583E1,-7.9422E-2,9.598332E-2,8.049845E0,3.8754165E0,-5.320418E0,2.905902E2,-7.172501E0,1.6434299E2,2.153089E1,1.2735799E2,9.0692717E-1,-3.0842686E-1,-5.781498E-2,-2.5539248E0,1.4046724E0,-1.1331082E-1,1.1298495E1,-9.916715E-1,1.1448967E0,4.267521E-1,7.0966534E-2,2.6444244E-1,-6.771896E-2,-1.305865E0,-1.9503836E-1,1.6984403E0,